{"learner":{"attributes":{},"feature_names":["dc_power","efficiency","hour","day","month","dow","ac_lag_1","ac_lag_3","ac_roll3","ghi","temp","pressure","humidity","wind_speed","rain_1h","clouds_all","issun","sunlighttime","daylength"],"feature_types":["float","float","int","int","int","int","float","float","float","float","float","float","float","float","float","float","float","float","float"],"gradient_booster":{"model":{"gbtree_model_param":{"num_parallel_tree":"1","num_trees":"300"},"iteration_indptr":[0,1,2,3,4,5,6,7,8,9,10,11,12,13,14,15,16,17,18,19,20,21,22,23,24,25,26,27,28,29,30,31,32,33,34,35,36,37,38,39,40,41,42,43,44,45,46,47,48,49,50,51,52,53,54,55,56,57,58,59,60,61,62,63,64,65,66,67,68,69,70,71,72,73,74,75,76,77,78,79,80,81,82,83,84,85,86,87,88,89,90,91,92,93,94,95,96,97,98,99,100,101,102,103,104,105,106,107,108,109,110,111,112,113,114,115,116,117,118,119,120,121,122,123,124,125,126,127,128,129,130,131,132,133,134,135,136,137,138,139,140,141,142,143,144,145,146,147,148,149,150,151,152,153,154,155,156,157,158,159,160,161,162,163,164,165,166,167,168,169,170,171,172,173,174,175,176,177,178,179,180,181,182,183,184,185,186,187,188,189,190,191,192,193,194,195,196,197,198,199,200,201,202,203,204,205,206,207,208,209,210,211,212,213,214,215,216,217,218,219,220,221,222,223,224,225,226,227,228,229,230,231,232,233,234,235,236,237,238,239,240,241,242,243,244,245,246,247,248,249,250,251,252,253,254,255,256,257,258,259,260,261,262,263,264,265,266,267,268,269,270,271,272,273,274,275,276,277,278,279,280,281,282,283,284,285,286,287,288,289,290,291,292,293,294,295,296,297,298,299,300],"tree_info":[0,0,0,0,0,0,0,0,0,0,0,0,0,0,0,0,0,0,0,0,0,0,0,0,0,0,0,0,0,0,0,0,0,0,0,0,0,0,0,0,0,0,0,0,0,0,0,0,0,0,0,0,0,0,0,0,0,0,0,0,0,0,0,0,0,0,0,0,0,0,0,0,0,0,0,0,0,0,0,0,0,0,0,0,0,0,0,0,0,0,0,0,0,0,0,0,0,0,0,0,0,0,0,0,0,0,0,0,0,0,0,0,0,0,0,0,0,0,0,0,0,0,0,0,0,0,0,0,0,0,0,0,0,0,0,0,0,0,0,0,0,0,0,0,0,0,0,0,0,0,0,0,0,0,0,0,0,0,0,0,0,0,0,0,0,0,0,0,0,0,0,0,0,0,0,0,0,0,0,0,0,0,0,0,0,0,0,0,0,0,0,0,0,0,0,0,0,0,0,0,0,0,0,0,0,0,0,0,0,0,0,0,0,0,0,0,0,0,0,0,0,0,0,0,0,0,0,0,0,0,0,0,0,0,0,0,0,0,0,0,0,0,0,0,0,0,0,0,0,0,0,0,0,0,0,0,0,0,0,0,0,0,0,0,0,0,0,0,0,0,0,0,0,0,0,0,0,0,0,0,0,0,0,0,0,0,0,0,0,0,0,0,0,0,0,0,0,0,0,0],"trees":[{"base_weights":[-1.7764865E0,-2.4802414E2,5.2149115E2,-2.9688284E2,-1.9148642E1,3.5179504E2,7.4774115E2,-3.0586127E2,-2.105693E2,-9.1843094E1,6.2412987E1,2.5084653E2,4.483073E2,6.521501E2,8.7582196E2,-1.5375452E1,-1.3602675E1,-2.3249286E2,-1.8208804E2,-1.2348075E2,-5.0509605E1,2.7909864E1,1.0058914E2,1.8949641E2,2.9875555E2,3.9827737E2,4.9611838E2,6.0196075E2,7.070411E2,8.24276E2,9.4265155E2,-1.217646E1,-1.0890111E1,-9.642149E0,-8.434638E0,-1.388715E2,-1.0572331E2,-6.9813484E1,-3.352529E1,9.987482E0,4.49843E1,8.245033E1,1.1565156E2,1.6169406E2,2.1518977E2,2.7033835E2,3.227666E2,1.8576405E1,4.2020572E2,2.3592747E1,2.6132282E1,2.875682E1,3.1385727E1,3.396064E1,3.6729095E1,3.9771908E1,4.2636524E1,4.567996E1,4.9073227E1,-7.43707E0,-6.5276465E0,-5.6015906E0,-4.731851E0,-3.9084218E0,-3.0342686E0,-2.0623252E0,-1.1638111E0,-3.808735E-2,9.0257484E-1,1.8566598E0,2.7918313E0,3.6960907E0,4.54626E0,5.3963656E0,6.291846E0,7.342366E0,8.673574E0,1.004676E1,1.1452888E1,1.2806557E1,1.407475E1,1.5412203E1,1.6748709E1,2.0336617E1,2.1635086E1],"categories":[],"categories_nodes":[],"categories_segments":[],"categories_sizes":[],"default_left":[0,0,0,0,0,0,0,0,0,0,0,0,0,0,0,0,0,0,0,0,0,0,0,0,0,0,0,0,0,0,0,0,0,0,0,0,0,0,0,0,0,0,0,0,0,0,0,0,0,0,0,0,0,0,0,0,0,0,0,0,0,0,0,0,0,0,0,0,0,0,0,0,0,0,0,0,0,0,0,0,0,0,0,0,0],"id":0,"left_children":[1,3,5,7,9,11,13,15,17,19,21,23,25,27,29,-1,-1,31,33,35,37,39,41,43,45,47,49,51,53,55,57,-1,-1,-1,-1,59,61,63,65,67,69,71,73,75,77,79,81,-1,83,-1,-1,-1,-1,-1,-1,-1,-1,-1,-1,-1,-1,-1,-1,-1,-1,-1,-1,-1,-1,-1,-1,-1,-1,-1,-1,-1,-1,-1,-1,-1,-1,-1,-1,-1,-1],"loss_changes":[5.6614333E9,3.340956E8,5.3955354E8,1.9015936E7,3.1174894E7,7.818048E7,7.319501E7,1.158528E6,1.40816E6,3.629152E6,3.261206E6,1.1494528E7,9.626368E6,9.090048E6,8.083072E6,0E0,0E0,1.59192E5,1.13696E5,4.15496E5,3.933905E5,3.9828756E5,3.11765E5,1.198152E6,1.417296E6,1.024064E6,1.102432E6,8.90048E5,7.61088E5,5.1968E5,3.584E5,0E0,0E0,0E0,0E0,4.9548E4,4.0802E4,3.826975E4,5.0003E4,5.523014E4,5.4756875E4,3.209175E4,3.677E4,1.20182E5,1.307E5,8.8944E4,1.07704E5,0E0,8.88E3,0E0,0E0,0E0,0E0,0E0,0E0,0E0,0E0,0E0,0E0,0E0,0E0,0E0,0E0,0E0,0E0,0E0,0E0,0E0,0E0,0E0,0E0,0E0,0E0,0E0,0E0,0E0,0E0,0E0,0E0,0E0,0E0,0E0,0E0,0E0,0E0],"parents":[2147483647,0,0,1,1,2,2,3,3,4,4,5,5,6,6,7,7,8,8,9,9,10,10,11,11,12,12,13,13,14,14,17,17,18,18,19,19,20,20,21,21,22,22,23,23,24,24,25,25,26,26,27,27,28,28,29,29,30,30,35,35,36,36,37,37,38,38,39,39,40,40,41,41,42,42,43,43,44,44,45,45,46,46,48,48],"right_children":[2,4,6,8,10,12,14,16,18,20,22,24,26,28,30,-1,-1,32,34,36,38,40,42,44,46,48,50,52,54,56,58,-1,-1,-1,-1,60,62,64,66,68,70,72,74,76,78,80,82,-1,84,-1,-1,-1,-1,-1,-1,-1,-1,-1,-1,-1,-1,-1,-1,-1,-1,-1,-1,-1,-1,-1,-1,-1,-1,-1,-1,-1,-1,-1,-1,-1,-1,-1,-1,-1,-1],"split_conditions":[4.510125E3,1.533E3,8.770375E3,5.18375E2,3.0038572E3,6.72175E3,1.0998143E4,1.8128572E2,1.041E3,2.2462856E3,3.7985E3,5.63575E3,7.712625E3,9.859143E3,1.2231571E4,-1.5375452E1,-1.3602675E1,8.015714E2,1.3117142E3,1.8984286E3,2.609875E3,3.4187144E3,4.142E3,5.0502856E3,6.17025E3,7.1804287E3,8.233857E3,9.310143E3,1.0391714E4,1.1604375E4,1.2868E4,-1.217646E1,-1.0890111E1,-9.642149E0,-8.434638E0,1.717875E3,2.092125E3,2.4257144E3,2.8137144E3,3.2184285E3,3.613875E3,3.9725E3,4.3415E3,4.7634287E3,5.3432856E3,5.8845E3,6.41975E3,1.8576405E1,7.43525E3,2.3592747E1,2.6132282E1,2.875682E1,3.1385727E1,3.396064E1,3.6729095E1,3.9771908E1,4.2636524E1,4.567996E1,4.9073227E1,-7.43707E0,-6.5276465E0,-5.6015906E0,-4.731851E0,-3.9084218E0,-3.0342686E0,-2.0623252E0,-1.1638111E0,-3.808735E-2,9.0257484E-1,1.8566598E0,2.7918313E0,3.6960907E0,4.54626E0,5.3963656E0,6.291846E0,7.342366E0,8.673574E0,1.004676E1,1.1452888E1,1.2806557E1,1.407475E1,1.5412203E1,1.6748709E1,2.0336617E1,2.1635086E1],"split_indices":[0,0,0,0,0,0,0,0,0,0,0,0,0,0,0,0,0,0,0,0,0,0,0,0,0,0,0,0,0,0,0,0,0,0,0,0,0,0,0,0,0,0,0,0,0,0,0,0,0,0,0,0,0,0,0,0,0,0,0,0,0,0,0,0,0,0,0,0,0,0,0,0,0,0,0,0,0,0,0,0,0,0,0,0,0],"split_type":[0,0,0,0,0,0,0,0,0,0,0,0,0,0,0,0,0,0,0,0,0,0,0,0,0,0,0,0,0,0,0,0,0,0,0,0,0,0,0,0,0,0,0,0,0,0,0,0,0,0,0,0,0,0,0,0,0,0,0,0,0,0,0,0,0,0,0,0,0,0,0,0,0,0,0,0,0,0,0,0,0,0,0,0,0],"sum_hessian":[4.3935E4,2.9876E4,1.4059E4,2.462E4,5.256E3,8.035E3,6.024E3,2.2298E4,2.322E3,2.779E3,2.477E3,3.929E3,4.106E3,3.453E3,2.571E3,2.1254E4,1.044E3,1.308E3,1.014E3,1.573E3,1.206E3,1.302E3,1.175E3,1.725E3,2.204E3,2.011E3,2.095E3,1.81E3,1.643E3,1.459E3,1.112E3,7.38E2,5.7E2,5.55E2,4.59E2,8.39E2,7.34E2,5.63E2,6.43E2,6.36E2,6.66E2,5.36E2,6.39E2,8.32E2,8.93E2,1.015E3,1.189E3,9.14E2,1.097E3,1.104E3,9.91E2,8.98E2,9.12E2,8.3E2,8.13E2,7.39E2,7.2E2,6.5E2,4.62E2,3.76E2,4.63E2,4.62E2,2.72E2,2.9E2,2.73E2,3.65E2,2.78E2,2.73E2,3.63E2,3.89E2,2.77E2,2.72E2,2.64E2,3.7E2,2.69E2,3.74E2,4.58E2,4.48E2,4.45E2,4.57E2,5.58E2,5.55E2,6.34E2,5.44E2,5.53E2],"tree_param":{"num_deleted":"0","num_feature":"19","num_nodes":"85","size_leaf_vector":"1"}},{"base_weights":[2.3372965E-1,-2.3566151E2,4.95995E2,-2.8223886E2,-1.7920073E1,3.321459E2,7.0694336E2,-2.9061072E2,-1.9982413E2,-8.7164024E1,5.9510162E1,2.3637833E2,4.2185785E2,6.137876E2,8.284816E2,-1.4606804E1,-1.2920412E1,-2.2298747E2,-1.7474718E2,-1.17174286E2,-4.7882053E1,2.4013016E1,9.2431595E1,1.781743E2,2.7992468E2,3.741181E2,4.669253E2,5.668805E2,6.6686884E2,7.7693317E2,8.90303E2,-1.1654944E1,-1.05419E1,-9.362783E0,-8.118681E0,-1.3186087E2,-1.0021331E2,-6.610598E1,-3.1847616E1,7.3482957E0,3.798273E1,7.296187E1,1.0743567E2,1.5390222E2,2.0185721E2,2.5251472E2,3.0287936E2,1.7428434E1,3.9488095E2,2.2091238E1,2.4469572E1,2.708664E1,2.957787E1,3.202755E1,3.458325E1,3.7448708E1,4.0142895E1,4.30089E1,4.6275036E1,-7.0519075E0,-6.20403E0,-5.3205485E0,-4.48401E0,-3.7201633E0,-2.8831787E0,-1.9669857E0,-1.085781E0,-1.9712757E-1,6.37283E-1,1.537782E0,2.3827834E0,3.232085E0,4.0541153E0,4.9055476E0,5.846528E0,6.989782E0,8.23958E0,9.398355E0,1.06458435E1,1.1956647E1,1.3138663E1,1.4445902E1,1.5743433E1,1.9122663E1,2.0345167E1],"categories":[],"categories_nodes":[],"categories_segments":[],"categories_sizes":[],"default_left":[0,0,0,0,0,0,0,0,0,0,0,0,0,0,0,0,0,0,0,0,0,0,0,0,0,0,0,0,0,0,0,0,0,0,0,0,0,0,0,0,0,0,0,0,0,0,0,0,0,0,0,0,0,0,0,0,0,0,0,0,0,0,0,0,0,0,0,0,0,0,0,0,0,0,0,0,0,0,0,0,0,0,0,0,0],"id":1,"left_children":[1,3,5,7,9,11,13,15,17,19,21,23,25,27,29,-1,-1,31,33,35,37,39,41,43,45,47,49,51,53,55,57,-1,-1,-1,-1,59,61,63,65,67,69,71,73,75,77,79,81,-1,83,-1,-1,-1,-1,-1,-1,-1,-1,-1,-1,-1,-1,-1,-1,-1,-1,-1,-1,-1,-1,-1,-1,-1,-1,-1,-1,-1,-1,-1,-1,-1,-1,-1,-1,-1,-1],"loss_changes":[5.1616046E9,3.0329626E8,4.916068E8,1.6939904E7,2.8266054E7,6.872685E7,6.991411E7,1.022976E6,1.282504E6,3.275162E6,2.906467E6,9.776656E6,8.721792E6,8.39872E6,7.900032E6,0E0,0E0,9.5696E4,1.39386E5,3.79616E5,3.505925E5,2.788498E5,3.69295E5,9.24304E5,1.317792E6,9.30208E5,9.80992E5,8.44992E5,6.32384E5,4.70016E5,4.96448E5,0E0,0E0,0E0,0E0,4.262E4,3.8504E4,3.521725E4,4.8031688E4,3.3445824E4,4.4113812E4,3.293175E4,5.2895E4,1.03694E5,8.8712E4,7.6636E4,1.10064E5,0E0,9.168E3,0E0,0E0,0E0,0E0,0E0,0E0,0E0,0E0,0E0,0E0,0E0,0E0,0E0,0E0,0E0,0E0,0E0,0E0,0E0,0E0,0E0,0E0,0E0,0E0,0E0,0E0,0E0,0E0,0E0,0E0,0E0,0E0,0E0,0E0,0E0,0E0],"parents":[2147483647,0,0,1,1,2,2,3,3,4,4,5,5,6,6,7,7,8,8,9,9,10,10,11,11,12,12,13,13,14,14,17,17,18,18,19,19,20,20,21,21,22,22,23,23,24,24,25,25,26,26,27,27,28,28,29,29,30,30,35,35,36,36,37,37,38,38,39,39,40,40,41,41,42,42,43,43,44,44,45,45,46,46,48,48],"right_children":[2,4,6,8,10,12,14,16,18,20,22,24,26,28,30,-1,-1,32,34,36,38,40,42,44,46,48,50,52,54,56,58,-1,-1,-1,-1,60,62,64,66,68,70,72,74,76,78,80,82,-1,84,-1,-1,-1,-1,-1,-1,-1,-1,-1,-1,-1,-1,-1,-1,-1,-1,-1,-1,-1,-1,-1,-1,-1,-1,-1,-1,-1,-1,-1,-1,-1,-1,-1,-1,-1,-1],"split_conditions":[4.510125E3,1.533E3,8.719857E3,5.18375E2,3.0038572E3,6.677375E3,1.091275E4,1.8128572E2,9.95E2,2.2462856E3,3.731E3,5.5737144E3,7.670375E3,9.793875E3,1.2134857E4,-1.4606804E1,-1.2920412E1,7.541429E2,1.26825E3,1.8984286E3,2.609875E3,3.3701428E3,4.0922856E3,5.0502856E3,6.1172856E3,7.1257144E3,8.146143E3,9.2535E3,1.0325143E4,1.1526875E4,1.27685E4,-1.1654944E1,-1.05419E1,-9.362783E0,-8.118681E0,1.717875E3,2.092125E3,2.4257144E3,2.8137144E3,3.1701428E3,3.56225E3,3.915875E3,4.28425E3,4.7634287E3,5.29075E3,5.834625E3,6.3804287E3,1.7428434E1,7.397E3,2.2091238E1,2.4469572E1,2.708664E1,2.957787E1,3.202755E1,3.458325E1,3.7448708E1,4.0142895E1,4.30089E1,4.6275036E1,-7.0519075E0,-6.20403E0,-5.3205485E0,-4.48401E0,-3.7201633E0,-2.8831787E0,-1.9669857E0,-1.085781E0,-1.9712757E-1,6.37283E-1,1.537782E0,2.3827834E0,3.232085E0,4.0541153E0,4.9055476E0,5.846528E0,6.989782E0,8.23958E0,9.398355E0,1.06458435E1,1.1956647E1,1.3138663E1,1.4445902E1,1.5743433E1,1.9122663E1,2.0345167E1],"split_indices":[0,0,0,0,0,0,0,0,0,0,0,0,0,0,0,0,0,0,0,0,0,0,0,0,0,0,0,0,0,0,0,0,0,0,0,0,0,0,0,0,0,0,0,0,0,0,0,0,0,0,0,0,0,0,0,0,0,0,0,0,0,0,0,0,0,0,0,0,0,0,0,0,0,0,0,0,0,0,0,0,0,0,0,0,0],"split_type":[0,0,0,0,0,0,0,0,0,0,0,0,0,0,0,0,0,0,0,0,0,0,0,0,0,0,0,0,0,0,0,0,0,0,0,0,0,0,0,0,0,0,0,0,0,0,0,0,0,0,0,0,0,0,0,0,0,0,0,0,0,0,0,0,0,0,0,0,0,0,0,0,0,0,0,0,0,0,0,0,0,0,0,0,0],"sum_hessian":[4.4134E4,2.9905E4,1.4229E4,2.4635E4,5.27E3,8.01E3,6.219E3,2.2361E4,2.274E3,2.782E3,2.488E3,3.876E3,4.134E3,3.524E3,2.695E3,2.1342E4,1.019E3,1.178E3,1.096E3,1.576E3,1.206E3,1.198E3,1.29E3,1.661E3,2.215E3,2.012E3,2.122E3,1.877E3,1.647E3,1.477E3,1.218E3,6.33E2,5.45E2,5.38E2,5.58E2,8.41E2,7.35E2,5.63E2,6.43E2,5.47E2,6.51E2,5.64E2,7.26E2,8.24E2,8.37E2,1.015E3,1.2E3,9.1E2,1.102E3,1.012E3,1.11E3,9.41E2,9.36E2,8.12E2,8.35E2,7.25E2,7.52E2,6.7E2,5.48E2,3.78E2,4.63E2,4.57E2,2.78E2,2.8E2,2.83E2,3.68E2,2.75E2,1.77E2,3.7E2,3.75E2,2.76E2,2.83E2,2.81E2,3.72E2,3.54E2,3.65E2,4.59E2,3.79E2,4.58E2,4.51E2,5.64E2,5.66E2,6.34E2,5.58E2,5.44E2],"tree_param":{"num_deleted":"0","num_feature":"19","num_nodes":"85","size_leaf_vector":"1"}},{"base_weights":[4.3506393E-1,-2.2289186E2,4.732994E2,-2.6750122E2,-1.2266457E1,3.231407E2,6.772848E2,-2.7587827E2,-1.8636053E2,-8.0918755E1,5.879478E1,2.3372867E2,4.108199E2,5.913191E2,7.903351E2,-1.3876266E1,-1.2203971E1,-2.0651889E2,-1.6001164E2,-1.0770688E2,-4.2534172E1,2.4951708E1,9.309571E1,1.7715556E2,2.757393E2,3.668524E2,4.5422595E2,5.474787E2,6.415198E2,7.440375E2,8.5153204E2,-1.0836907E1,-9.646267E0,-8.49413E0,-7.4070396E0,-1.2157202E2,-9.149711E1,-5.7699566E1,-2.788954E1,9.059294E0,4.0953274E1,7.687892E1,1.0965435E2,1.5410243E2,2.017173E2,2.50676E2,2.990784E2,1.7177982E1,3.868473E2,2.1660627E1,2.391233E1,2.6188334E1,2.855548E1,3.0927753E1,3.329276E1,3.587733E1,3.8476147E1,4.1436226E1,4.4769073E1,-6.5003138E0,-5.7185807E0,-4.879402E0,-4.045527E0,-3.2800736E0,-2.4577599E0,-1.633261E0,-8.826305E-1,-3.431777E-2,8.1395817E-1,1.6754551E0,2.529932E0,3.321957E0,4.210357E0,5.0941772E0,5.961198E0,7.081154E0,8.324363E0,9.446218E0,1.0605021E1,1.1874328E1,1.3128455E1,1.4297156E1,1.5496167E1,1.8743101E1,1.991268E1],"categories":[],"categories_nodes":[],"categories_segments":[],"categories_sizes":[],"default_left":[0,0,0,0,0,0,0,0,0,0,0,0,0,0,0,0,0,0,0,0,0,0,0,0,0,0,0,0,0,0,0,0,0,0,0,0,0,0,0,0,0,0,0,0,0,0,0,0,0,0,0,0,0,0,0,0,0,0,0,0,0,0,0,0,0,0,0,0,0,0,0,0,0,0,0,0,0,0,0,0,0,0,0,0,0],"id":2,"left_children":[1,3,5,7,9,11,13,15,17,19,21,23,25,27,29,-1,-1,31,33,35,37,39,41,43,45,47,49,51,53,55,57,-1,-1,-1,-1,59,61,63,65,67,69,71,73,75,77,79,81,-1,83,-1,-1,-1,-1,-1,-1,-1,-1,-1,-1,-1,-1,-1,-1,-1,-1,-1,-1,-1,-1,-1,-1,-1,-1,-1,-1,-1,-1,-1,-1,-1,-1,-1,-1,-1,-1],"loss_changes":[4.650666E9,2.8104576E8,4.3249382E8,1.6726784E7,2.5514526E7,6.371027E7,5.773645E7,1.104E6,1.195512E6,2.730566E6,2.981059E6,9.533904E6,7.673344E6,7.144704E6,6.687616E6,0E0,0E0,1.39748E5,9.283E4,3.40836E5,2.41581E5,3.2895206E5,3.34212E5,9.43384E5,1.27744E6,8.2E5,8.34112E5,7.23456E5,4.72256E5,4.46272E5,3.64032E5,0E0,0E0,0E0,0E0,3.6205E4,3.89185E4,3.3031875E4,2.6751969E4,4.581703E4,4.4616625E4,4.398075E4,3.4627E4,1.14284E5,7.018E4,1.13488E5,8.1184E4,0E0,1.28E2,0E0,0E0,0E0,0E0,0E0,0E0,0E0,0E0,0E0,0E0,0E0,0E0,0E0,0E0,0E0,0E0,0E0,0E0,0E0,0E0,0E0,0E0,0E0,0E0,0E0,0E0,0E0,0E0,0E0,0E0,0E0,0E0,0E0,0E0,0E0,0E0],"parents":[2147483647,0,0,1,1,2,2,3,3,4,4,5,5,6,6,7,7,8,8,9,9,10,10,11,11,12,12,13,13,14,14,17,17,18,18,19,19,20,20,21,21,22,22,23,23,24,24,25,25,26,26,27,27,28,28,29,29,30,30,35,35,36,36,37,37,38,38,39,39,40,40,41,41,42,42,43,43,44,44,45,45,46,46,48,48],"right_children":[2,4,6,8,10,12,14,16,18,20,22,24,26,28,30,-1,-1,32,34,36,38,40,42,44,46,48,50,52,54,56,58,-1,-1,-1,-1,60,62,64,66,68,70,72,74,76,78,80,82,-1,84,-1,-1,-1,-1,-1,-1,-1,-1,-1,-1,-1,-1,-1,-1,-1,-1,-1,-1,-1,-1,-1,-1,-1,-1,-1,-1,-1,-1,-1,-1,-1,-1,-1,-1,-1,-1],"split_conditions":[4.5865713E3,1.5785E3,8.824714E3,5.57375E2,3.0038572E3,6.802857E3,1.0998143E4,1.8128572E2,1.0932858E3,2.3015E3,3.7985E3,5.692143E3,7.7984287E3,9.911875E3,1.2231571E4,-1.3876266E1,-1.2203971E1,8.398571E2,1.354E3,1.9447142E3,2.666E3,3.4187144E3,4.190857E3,5.1602856E3,6.260125E3,7.2705713E3,8.318875E3,9.364286E3,1.0453143E4,1.1604375E4,1.297575E4,-1.0836907E1,-9.646267E0,-8.49413E0,-7.4070396E0,1.759375E3,2.1457144E3,2.483E3,2.8695715E3,3.2184285E3,3.613875E3,3.9725E3,4.395375E3,4.8942856E3,5.401143E3,5.963875E3,6.511857E3,1.7177982E1,7.5254287E3,2.1660627E1,2.391233E1,2.6188334E1,2.855548E1,3.0927753E1,3.329276E1,3.587733E1,3.8476147E1,4.1436226E1,4.4769073E1,-6.5003138E0,-5.7185807E0,-4.879402E0,-4.045527E0,-3.2800736E0,-2.4577599E0,-1.633261E0,-8.826305E-1,-3.431777E-2,8.1395817E-1,1.6754551E0,2.529932E0,3.321957E0,4.210357E0,5.0941772E0,5.961198E0,7.081154E0,8.324363E0,9.446218E0,1.0605021E1,1.1874328E1,1.3128455E1,1.4297156E1,1.5496167E1,1.8743101E1,1.991268E1],"split_indices":[0,0,0,0,0,0,0,0,0,0,0,0,0,0,0,0,0,0,0,0,0,0,0,0,0,0,0,0,0,0,0,0,0,0,0,0,0,0,0,0,0,0,0,0,0,0,0,0,0,0,0,0,0,0,0,0,0,0,0,0,0,0,0,0,0,0,0,0,0,0,0,0,0,0,0,0,0,0,0,0,0,0,0,0,0],"split_type":[0,0,0,0,0,0,0,0,0,0,0,0,0,0,0,0,0,0,0,0,0,0,0,0,0,0,0,0,0,0,0,0,0,0,0,0,0,0,0,0,0,0,0,0,0,0,0,0,0,0,0,0,0,0,0,0,0,0,0,0,0,0,0,0,0,0,0,0,0,0,0,0,0,0,0,0,0,0,0,0,0,0,0,0,0],"sum_hessian":[4.4037E4,2.9911E4,1.4126E4,2.4683E4,5.228E3,8.138E3,5.988E3,2.2371E4,2.312E3,2.659E3,2.569E3,4.031E3,4.107E3,3.405E3,2.583E3,2.1262E4,1.109E3,1.306E3,1.006E3,1.565E3,1.094E3,1.294E3,1.275E3,1.72E3,2.311E3,2.045E3,2.062E3,1.824E3,1.581E3,1.478E3,1.105E3,7.37E2,5.69E2,5.42E2,4.64E2,8.4E2,7.25E2,5.36E2,5.58E2,6.5E2,6.44E2,6.47E2,6.28E2,8.91E2,8.29E2,1.12E3,1.191E3,9.53E2,1.092E3,1.11E3,9.52E2,9.22E2,9.02E2,8.27E2,7.54E2,7.39E2,7.39E2,7.4E2,3.65E2,3.79E2,4.61E2,4.55E2,2.7E2,2.75E2,2.61E2,3.79E2,1.79E2,2.77E2,3.73E2,3.66E2,2.78E2,2.71E2,3.76E2,3.53E2,2.75E2,4.5E2,4.41E2,3.8E2,4.49E2,5.41E2,5.79E2,5.51E2,6.4E2,5.49E2,5.43E2],"tree_param":{"num_deleted":"0","num_feature":"19","num_nodes":"85","size_leaf_vector":"1"}},{"base_weights":[-9.2769766E-1,-2.1309398E2,4.4628955E2,-2.547075E2,-1.5898802E1,3.0354675E2,6.440433E2,-2.624598E2,-1.8235632E2,-8.074476E1,5.0824886E1,2.1743266E2,3.887746E2,5.633904E2,7.544499E2,-1.318529E1,-1.1794018E1,-2.027771E2,-1.5813937E2,-1.056738E2,-4.518851E1,1.8896923E1,8.354495E1,1.6301149E2,2.5801056E2,3.490888E2,4.3339206E2,5.227622E2,6.143599E2,7.1403827E2,8.1285315E2,-1.0589131E1,-9.506232E0,-8.458384E0,-7.330883E0,-1.2045829E2,-9.219275E1,-6.239585E1,-3.3110508E1,7.199659E-1,3.2370296E1,6.5662796E1,9.714556E1,1.4203891E2,1.8731236E2,2.3356903E2,2.8039413E2,3.2638986E2,1.8546057E1,2.077904E1,2.2849108E1,2.4973536E1,2.7388762E1,2.9632664E1,3.190987E1,3.4414524E1,3.688487E1,3.978141E1,4.2886417E1,-6.472175E0,-5.7471685E0,-4.9650865E0,-4.1465974E0,-3.4894803E0,-2.8631485E0,-2.096945E0,-1.3295034E0,-5.4592055E-1,3.3399484E-1,1.1879056E0,2.0390935E0,2.9121144E0,3.6462457E0,4.421498E0,5.291647E0,6.4502025E0,7.715889E0,8.735943E0,9.834935E0,1.1097711E1,1.22517805E1,1.3393697E1,1.4546137E1,1.5688889E1,1.6908735E1],"categories":[],"categories_nodes":[],"categories_segments":[],"categories_sizes":[],"default_left":[0,0,0,0,0,0,0,0,0,0,0,0,0,0,0,0,0,0,0,0,0,0,0,0,0,0,0,0,0,0,0,0,0,0,0,0,0,0,0,0,0,0,0,0,0,0,0,0,0,0,0,0,0,0,0,0,0,0,0,0,0,0,0,0,0,0,0,0,0,0,0,0,0,0,0,0,0,0,0,0,0,0,0,0,0],"id":3,"left_children":[1,3,5,7,9,11,13,15,17,19,21,23,25,27,29,-1,-1,31,33,35,37,39,41,43,45,47,49,51,53,55,57,-1,-1,-1,-1,59,61,63,65,67,69,71,73,75,77,79,81,83,-1,-1,-1,-1,-1,-1,-1,-1,-1,-1,-1,-1,-1,-1,-1,-1,-1,-1,-1,-1,-1,-1,-1,-1,-1,-1,-1,-1,-1,-1,-1,-1,-1,-1,-1,-1,-1],"loss_changes":[4.174725E9,2.4487078E8,3.9942707E8,1.3773056E7,2.250759E7,6.027405E7,5.241472E7,6.74816E5,1.148872E6,2.333506E6,2.6769935E6,8.996512E6,7.165184E6,6.787968E6,5.324672E6,0E0,0E0,1.06948E5,1.14588E5,2.97826E5,2.24261E5,3.1810816E5,3.01523E5,8.65796E5,1.216336E6,9.65232E5,6.256E5,8.43232E5,4.06656E5,3.9808E5,1.02912E5,0E0,0E0,0E0,0E0,2.1592E4,4.542E4,1.3005875E4,3.5841562E4,3.8500543E4,5.3072875E4,2.53915E4,4.493E4,1.31184E5,6.1146E4,9.5576E4,8.2624E4,5.4848E4,0E0,0E0,0E0,0E0,0E0,0E0,0E0,0E0,0E0,0E0,0E0,0E0,0E0,0E0,0E0,0E0,0E0,0E0,0E0,0E0,0E0,0E0,0E0,0E0,0E0,0E0,0E0,0E0,0E0,0E0,0E0,0E0,0E0,0E0,0E0,0E0,0E0],"parents":[2147483647,0,0,1,1,2,2,3,3,4,4,5,5,6,6,7,7,8,8,9,9,10,10,11,11,12,12,13,13,14,14,17,17,18,18,19,19,20,20,21,21,22,22,23,23,24,24,25,25,26,26,27,27,28,28,29,29,30,30,35,35,36,36,37,37,38,38,39,39,40,40,41,41,42,42,43,43,44,44,45,45,46,46,47,47],"right_children":[2,4,6,8,10,12,14,16,18,20,22,24,26,28,30,-1,-1,32,34,36,38,40,42,44,46,48,50,52,54,56,58,-1,-1,-1,-1,60,62,64,66,68,70,72,74,76,78,80,82,84,-1,-1,-1,-1,-1,-1,-1,-1,-1,-1,-1,-1,-1,-1,-1,-1,-1,-1,-1,-1,-1,-1,-1,-1,-1,-1,-1,-1,-1,-1,-1,-1,-1,-1,-1,-1,-1],"split_conditions":[4.510125E3,1.533E3,8.824714E3,4.752857E2,2.9248572E3,6.766875E3,1.1082571E4,1.46E2,9.95E2,2.2462856E3,3.731E3,5.63575E3,7.846857E3,9.961286E3,1.23185E4,-1.318529E1,-1.1794018E1,7.541429E2,1.26825E3,1.8604286E3,2.555625E3,3.319875E3,4.0922856E3,5.1085E3,6.204143E3,7.310875E3,8.361625E3,9.41775E3,1.0514E4,1.1685143E4,1.3095E4,-1.0589131E1,-9.506232E0,-8.458384E0,-7.330883E0,1.674375E3,2.0487144E3,2.372E3,2.72E3,3.090875E3,3.5115715E3,3.915875E3,4.28425E3,4.8375713E3,5.3432856E3,5.9227144E3,6.465E3,7.024857E3,1.8546057E1,2.077904E1,2.2849108E1,2.4973536E1,2.7388762E1,2.9632664E1,3.190987E1,3.4414524E1,3.688487E1,3.978141E1,4.2886417E1,-6.472175E0,-5.7471685E0,-4.9650865E0,-4.1465974E0,-3.4894803E0,-2.8631485E0,-2.096945E0,-1.3295034E0,-5.4592055E-1,3.3399484E-1,1.1879056E0,2.0390935E0,2.9121144E0,3.6462457E0,4.421498E0,5.291647E0,6.4502025E0,7.715889E0,8.735943E0,9.834935E0,1.1097711E1,1.22517805E1,1.3393697E1,1.4546137E1,1.5688889E1,1.6908735E1],"split_indices":[0,0,0,0,0,0,0,0,0,0,0,0,0,0,0,0,0,0,0,0,0,0,0,0,0,0,0,0,0,0,0,0,0,0,0,0,0,0,0,0,0,0,0,0,0,0,0,0,0,0,0,0,0,0,0,0,0,0,0,0,0,0,0,0,0,0,0,0,0,0,0,0,0,0,0,0,0,0,0,0,0,0,0,0,0],"split_type":[0,0,0,0,0,0,0,0,0,0,0,0,0,0,0,0,0,0,0,0,0,0,0,0,0,0,0,0,0,0,0,0,0,0,0,0,0,0,0,0,0,0,0,0,0,0,0,0,0,0,0,0,0,0,0,0,0,0,0,0,0,0,0,0,0,0,0,0,0,0,0,0,0,0,0,0,0,0,0,0,0,0,0,0,0],"sum_hessian":[4.3996E4,2.984E4,1.4156E4,2.464E4,5.2E3,8.223E3,5.933E3,2.2253E4,2.387E3,2.637E3,2.563E3,4.092E3,4.131E3,3.432E3,2.501E3,2.1248E4,1.005E3,1.291E3,1.096E3,1.549E3,1.088E3,1.298E3,1.265E3,1.75E3,2.342E3,2.191E3,1.94E3,1.916E3,1.516E3,1.486E3,1.015E3,7.45E2,5.46E2,5.53E2,5.43E2,7.35E2,8.14E2,4.47E2,6.41E2,5.53E2,7.45E2,5.49E2,7.16E2,9.43E2,8.07E2,1.125E3,1.217E3,1.082E3,1.109E3,1.116E3,8.24E2,1.003E3,9.13E2,8.07E2,7.09E2,7.26E2,7.6E2,7.47E2,2.68E2,2.71E2,4.64E2,4.55E2,3.59E2,1.78E2,2.69E2,2.7E2,3.71E2,1.87E2,3.66E2,3.7E2,3.75E2,2.76E2,2.73E2,3.63E2,3.53E2,4.63E2,4.8E2,3.53E2,4.54E2,5.69E2,5.56E2,5.68E2,6.49E2,5.36E2,5.46E2],"tree_param":{"num_deleted":"0","num_feature":"19","num_nodes":"85","size_leaf_vector":"1"}},{"base_weights":[-7.595238E-1,-2.0095702E2,4.2608582E2,-2.4151254E2,-1.1045708E1,2.9215015E2,6.135916E2,-2.4902556E2,-1.6833354E2,-7.304426E1,5.3397804E1,2.1257501E2,3.741121E2,5.385525E2,7.170202E2,-2.5041042E2,-1.096428E1,-1.8641052E2,-1.4453859E2,-9.694525E1,-3.8182877E1,2.2446793E1,8.4022545E1,1.6201186E2,2.5235764E2,3.3672818E2,4.14824E2,5.0127377E2,5.86192E2,6.778223E2,7.7321185E2,-1.2538253E1,-1.1994741E1,-9.780442E0,-8.719868E0,-7.6661105E0,-6.6861835E0,-1.0975821E2,-8.2866646E1,-5.174175E1,-2.4896742E1,8.044652E0,3.6791893E1,6.910446E1,9.8652916E1,1.3914299E2,1.8445834E2,2.295892E2,2.7295786E2,3.157199E2,3.5599002E2,1.9901655E1,2.1889374E1,2.3971012E1,2.6230398E1,2.8378416E1,3.0456858E1,3.2830414E1,3.5186146E1,3.7585384E1,4.038915E1,-5.795521E0,-5.083469E0,-4.4122024E0,-3.6591632E0,-2.95318E0,-2.2182338E0,-1.4779863E0,-8.0216694E-1,-4.7684547E-2,7.475051E-1,1.5113424E0,2.2853851E0,3.1114907E0,3.9043686E0,4.6061797E0,5.375405E0,6.3808756E0,7.5108314E0,8.6517E0,9.817001E0,1.090655E1,1.2034816E1,1.3052544E1,1.41323595E1,1.5194778E1,1.6242636E1,1.7139334E1,1.824034E1],"categories":[],"categories_nodes":[],"categories_segments":[],"categories_sizes":[],"default_left":[0,0,0,0,0,0,0,0,0,0,0,0,0,0,0,0,0,0,0,0,0,0,0,0,0,0,0,0,0,0,0,0,0,0,0,0,0,0,0,0,0,0,0,0,0,0,0,0,0,0,0,0,0,0,0,0,0,0,0,0,0,0,0,0,0,0,0,0,0,0,0,0,0,0,0,0,0,0,0,0,0,0,0,0,0,0,0,0,0],"id":4,"left_children":[1,3,5,7,9,11,13,15,17,19,21,23,25,27,29,31,-1,33,35,37,39,41,43,45,47,49,51,53,55,57,59,-1,-1,-1,-1,-1,-1,61,63,65,67,69,71,73,75,77,79,81,83,85,87,-1,-1,-1,-1,-1,-1,-1,-1,-1,-1,-1,-1,-1,-1,-1,-1,-1,-1,-1,-1,-1,-1,-1,-1,-1,-1,-1,-1,-1,-1,-1,-1,-1,-1,-1,-1,-1,-1],"loss_changes":[3.7679808E9,2.3117914E8,3.533719E8,1.3556864E7,2.1111622E7,5.349325E7,4.513331E7,8.68736E5,9.64964E5,2.240165E6,2.454037E6,8.347216E6,6.016704E6,5.749632E6,4.900864E6,1.9712E4,0E0,1.10312E5,7.4492E4,2.78986E5,1.9633088E5,2.662182E5,2.77353E5,9.1834E5,1.03112E6,7.43072E5,5.70656E5,7.25536E5,2.90112E5,3.39584E5,1.39968E5,0E0,0E0,0E0,0E0,0E0,0E0,2.9669E4,3.3377E4,2.6655125E4,2.247925E4,4.009302E4,3.64305E4,3.515725E4,2.7967E4,9.761E4,9.1584E4,8.9276E4,6.6856E4,1.1432E4,2.416E3,0E0,0E0,0E0,0E0,0E0,0E0,0E0,0E0,0E0,0E0,0E0,0E0,0E0,0E0,0E0,0E0,0E0,0E0,0E0,0E0,0E0,0E0,0E0,0E0,0E0,0E0,0E0,0E0,0E0,0E0,0E0,0E0,0E0,0E0,0E0,0E0,0E0,0E0],"parents":[2147483647,0,0,1,1,2,2,3,3,4,4,5,5,6,6,7,7,8,8,9,9,10,10,11,11,12,12,13,13,14,14,15,15,17,17,18,18,19,19,20,20,21,21,22,22,23,23,24,24,25,25,26,26,27,27,28,28,29,29,30,30,37,37,38,38,39,39,40,40,41,41,42,42,43,43,44,44,45,45,46,46,47,47,48,48,49,49,50,50],"right_children":[2,4,6,8,10,12,14,16,18,20,22,24,26,28,30,32,-1,34,36,38,40,42,44,46,48,50,52,54,56,58,60,-1,-1,-1,-1,-1,-1,62,64,66,68,70,72,74,76,78,80,82,84,86,88,-1,-1,-1,-1,-1,-1,-1,-1,-1,-1,-1,-1,-1,-1,-1,-1,-1,-1,-1,-1,-1,-1,-1,-1,-1,-1,-1,-1,-1,-1,-1,-1,-1,-1,-1,-1,-1,-1],"split_conditions":[4.5865713E3,1.5785E3,8.8815E3,5.57375E2,3.0038572E3,6.840143E3,1.1082571E4,2.52875E2,1.0932858E3,2.3015E3,3.7985E3,5.744375E3,7.884E3,1.0023125E4,1.23185E4,5.4857143E1,-1.096428E1,8.398571E2,1.354E3,1.9447142E3,2.666E3,3.4187144E3,4.190857E3,5.1602856E3,6.291143E3,7.3494287E3,8.416286E3,9.474125E3,1.0579143E4,1.176525E4,1.297575E4,-1.2538253E1,-1.1994741E1,-9.780442E0,-8.719868E0,-7.6661105E0,-6.6861835E0,1.792375E3,2.1457144E3,2.483E3,2.8695715E3,3.2184285E3,3.613875E3,4.0375E3,4.395375E3,4.8942856E3,5.4635713E3,6.015125E3,6.5464287E3,7.074E3,7.5744287E3,1.9901655E1,2.1889374E1,2.3971012E1,2.6230398E1,2.8378416E1,3.0456858E1,3.2830414E1,3.5186146E1,3.7585384E1,4.038915E1,-5.795521E0,-5.083469E0,-4.4122024E0,-3.6591632E0,-2.95318E0,-2.2182338E0,-1.4779863E0,-8.0216694E-1,-4.7684547E-2,7.475051E-1,1.5113424E0,2.2853851E0,3.1114907E0,3.9043686E0,4.6061797E0,5.375405E0,6.3808756E0,7.5108314E0,8.6517E0,9.817001E0,1.090655E1,1.2034816E1,1.3052544E1,1.41323595E1,1.5194778E1,1.6242636E1,1.7139334E1,1.824034E1],"split_indices":[0,0,0,0,0,0,0,0,0,0,0,0,0,0,0,0,0,0,0,0,0,0,0,0,0,0,0,0,0,0,0,0,0,0,0,0,0,0,0,0,0,0,0,0,0,0,0,0,0,0,0,0,0,0,0,0,0,0,0,0,0,0,0,0,0,0,0,0,0,0,0,0,0,0,0,0,0,0,0,0,0,0,0,0,0,0,0,0,0],"split_type":[0,0,0,0,0,0,0,0,0,0,0,0,0,0,0,0,0,0,0,0,0,0,0,0,0,0,0,0,0,0,0,0,0,0,0,0,0,0,0,0,0,0,0,0,0,0,0,0,0,0,0,0,0,0,0,0,0,0,0,0,0,0,0,0,0,0,0,0,0,0,0,0,0,0,0,0,0,0,0,0,0,0,0,0,0,0,0,0,0],"sum_hessian":[4.4092E4,3.0015E4,1.4077E4,2.4733E4,5.282E3,8.213E3,5.864E3,2.2428E4,2.305E3,2.692E3,2.59E3,4.169E3,4.044E3,3.402E3,2.462E3,2.1423E4,1.005E3,1.306E3,9.99E2,1.596E3,1.096E3,1.289E3,1.301E3,1.838E3,2.331E3,2.113E3,1.931E3,1.915E3,1.487E3,1.458E3,1.004E3,2.0702E4,7.21E2,7.31E2,5.75E2,5.44E2,4.55E2,8.32E2,7.64E2,5.41E2,5.55E2,6.44E2,6.45E2,6.47E2,6.54E2,9.14E2,9.24E2,1.113E3,1.218E3,1.019E3,1.094E3,1.126E3,8.05E2,1E3,9.15E2,8.35E2,6.52E2,8.16E2,6.42E2,6.33E2,3.71E2,4.65E2,3.67E2,4.86E2,2.78E2,2.68E2,2.73E2,3.62E2,1.93E2,2.8E2,3.64E2,3.74E2,2.71E2,3.71E2,2.76E2,3.83E2,2.71E2,4.54E2,4.6E2,4.79E2,4.45E2,5.58E2,5.55E2,5.59E2,6.59E2,4.59E2,5.6E2,4.54E2,6.4E2],"tree_param":{"num_deleted":"0","num_feature":"19","num_nodes":"89","size_leaf_vector":"1"}},{"base_weights":[-4.6536312E-1,-1.9087486E2,4.0542786E2,-2.293812E2,-1.0671388E1,2.777666E2,5.831821E2,-2.3671516E2,-1.616465E2,-6.938098E1,5.0676884E1,2.0197514E2,3.556082E2,5.112807E2,6.8091406E2,-1.1899706E1,-2.1190962E2,-1.8016635E2,-1.3938695E2,-9.235594E1,-3.666802E1,2.1480968E1,7.9924E1,1.5424362E2,2.3958826E2,3.2137457E2,3.9599667E2,4.7427594E2,5.547389E2,6.439326E2,7.3441425E2,-1.0933581E1,-1.0227961E1,-9.43735E0,-8.434779E0,-7.4653435E0,-1.2914145E2,-1.0414484E2,-7.835426E1,-4.93343E1,-2.386768E1,5.4509935E0,3.3048553E1,6.5913185E1,9.385436E1,1.3229102E2,1.756735E2,2.1817717E2,2.5898376E2,3.0160223E2,1.7064405E1,1.8985682E1,2.0788343E1,2.2663698E1,2.471034E1,2.6739014E1,2.8813902E1,3.1066608E1,3.3292217E1,3.5881992E1,3.8824257E1,-6.7150445E0,-6.156399E0,-5.58012E0,-4.9075794E0,-4.2679386E0,-3.5701368E0,-2.8033075E0,-2.115196E0,-1.4849145E0,-8.8903296E-1,-2.0223594E-1,5.157797E-1,1.25136E0,2.0697567E0,2.853006E0,3.6172745E0,4.261949E0,5.00337E0,5.9527297E0,7.0529227E0,8.229575E0,9.330694E0,1.0365501E1,1.1445211E1,1.2464796E1,1.3499153E1,1.4427111E1,1.5510701E1],"categories":[],"categories_nodes":[],"categories_segments":[],"categories_sizes":[],"default_left":[0,0,0,0,0,0,0,0,0,0,0,0,0,0,0,0,0,0,0,0,0,0,0,0,0,0,0,0,0,0,0,0,0,0,0,0,0,0,0,0,0,0,0,0,0,0,0,0,0,0,0,0,0,0,0,0,0,0,0,0,0,0,0,0,0,0,0,0,0,0,0,0,0,0,0,0,0,0,0,0,0,0,0,0,0,0,0,0,0],"id":5,"left_children":[1,3,5,7,9,11,13,15,17,19,21,23,25,27,29,-1,31,33,35,37,39,41,43,45,47,49,51,53,55,57,59,-1,-1,-1,-1,-1,61,63,65,67,69,71,73,75,77,79,81,83,85,87,-1,-1,-1,-1,-1,-1,-1,-1,-1,-1,-1,-1,-1,-1,-1,-1,-1,-1,-1,-1,-1,-1,-1,-1,-1,-1,-1,-1,-1,-1,-1,-1,-1,-1,-1,-1,-1,-1,-1],"loss_changes":[3.4076142E9,2.0824998E8,3.193234E8,1.2245632E7,1.9038672E7,4.8282304E7,4.099904E7,6.57408E5,9.72104E5,2.026628E6,2.205606E6,7.422672E6,5.461344E6,5.195008E6,4.455552E6,0E0,1.0088E4,9.7788E4,9.2822E4,2.53633E5,1.7976262E5,2.3994931E5,2.457855E5,8.39556E5,9.07768E5,7.60544E5,4.37696E5,5.46176E5,3.60288E5,3.1968E5,1.56288E5,0E0,0E0,0E0,0E0,0E0,5.28E2,2.7394E4,2.9402E4,2.4131625E4,1.9240469E4,2.5170629E4,4.9311E4,3.2716E4,2.5996E4,8.8811E4,8.1432E4,8.194E4,6.1944E4,3.5224E4,0E0,0E0,0E0,0E0,0E0,0E0,0E0,0E0,0E0,0E0,0E0,0E0,0E0,0E0,0E0,0E0,0E0,0E0,0E0,0E0,0E0,0E0,0E0,0E0,0E0,0E0,0E0,0E0,0E0,0E0,0E0,0E0,0E0,0E0,0E0,0E0,0E0,0E0,0E0],"parents":[2147483647,0,0,1,1,2,2,3,3,4,4,5,5,6,6,7,7,8,8,9,9,10,10,11,11,12,12,13,13,14,14,16,16,17,17,18,18,19,19,20,20,21,21,22,22,23,23,24,24,25,25,26,26,27,27,28,28,29,29,30,30,36,36,37,37,38,38,39,39,40,40,41,41,42,42,43,43,44,44,45,45,46,46,47,47,48,48,49,49],"right_children":[2,4,6,8,10,12,14,16,18,20,22,24,26,28,30,-1,32,34,36,38,40,42,44,46,48,50,52,54,56,58,60,-1,-1,-1,-1,-1,62,64,66,68,70,72,74,76,78,80,82,84,86,88,-1,-1,-1,-1,-1,-1,-1,-1,-1,-1,-1,-1,-1,-1,-1,-1,-1,-1,-1,-1,-1,-1,-1,-1,-1,-1,-1,-1,-1,-1,-1,-1,-1,-1,-1,-1,-1,-1,-1],"split_conditions":[4.5865713E3,1.5785E3,8.8815E3,5.18375E2,3.0038572E3,6.840143E3,1.1082571E4,1.46E2,1.041E3,2.3015E3,3.7985E3,5.744375E3,7.924857E3,9.961286E3,1.23185E4,-1.1899706E1,3.622857E2,8.015714E2,1.3117142E3,1.9447142E3,2.666E3,3.3701428E3,4.190857E3,5.1602856E3,6.291143E3,7.397E3,8.416286E3,9.41775E3,1.0514E4,1.1685143E4,1.3095E4,-1.0933581E1,-1.0227961E1,-9.43735E0,-8.434779E0,-7.4653435E0,1.4457142E3,1.759375E3,2.092125E3,2.483E3,2.8137144E3,3.1701428E3,3.56225E3,3.9725E3,4.3415E3,4.8375713E3,5.4635713E3,6.015125E3,6.588857E3,7.074E3,1.7064405E1,1.8985682E1,2.0788343E1,2.2663698E1,2.471034E1,2.6739014E1,2.8813902E1,3.1066608E1,3.3292217E1,3.5881992E1,3.8824257E1,-6.7150445E0,-6.156399E0,-5.58012E0,-4.9075794E0,-4.2679386E0,-3.5701368E0,-2.8033075E0,-2.115196E0,-1.4849145E0,-8.8903296E-1,-2.0223594E-1,5.157797E-1,1.25136E0,2.0697567E0,2.853006E0,3.6172745E0,4.261949E0,5.00337E0,5.9527297E0,7.0529227E0,8.229575E0,9.330694E0,1.0365501E1,1.1445211E1,1.2464796E1,1.3499153E1,1.4427111E1,1.5510701E1],"split_indices":[0,0,0,0,0,0,0,0,0,0,0,0,0,0,0,0,0,0,0,0,0,0,0,0,0,0,0,0,0,0,0,0,0,0,0,0,0,0,0,0,0,0,0,0,0,0,0,0,0,0,0,0,0,0,0,0,0,0,0,0,0,0,0,0,0,0,0,0,0,0,0,0,0,0,0,0,0,0,0,0,0,0,0,0,0,0,0,0,0],"split_type":[0,0,0,0,0,0,0,0,0,0,0,0,0,0,0,0,0,0,0,0,0,0,0,0,0,0,0,0,0,0,0,0,0,0,0,0,0,0,0,0,0,0,0,0,0,0,0,0,0,0,0,0,0,0,0,0,0,0,0,0,0,0,0,0,0,0,0,0,0,0,0,0,0,0,0,0,0,0,0,0,0,0,0,0,0,0,0,0,0],"sum_hessian":[4.4089E4,3.0011E4,1.4078E4,2.4727E4,5.284E3,8.195E3,5.883E3,2.2309E4,2.418E3,2.7E3,2.584E3,4.154E3,4.041E3,3.393E3,2.49E3,2.1207E4,1.102E3,1.316E3,1.102E3,1.585E3,1.115E3,1.294E3,1.29E3,1.833E3,2.321E3,2.192E3,1.849E3,1.839E3,1.554E3,1.48E3,1.01E3,5.59E2,5.43E2,7.44E2,5.72E2,5.53E2,5.49E2,8.57E2,7.28E2,5.59E2,5.56E2,5.43E2,7.51E2,6.46E2,6.44E2,9.09E2,9.24E2,1.109E3,1.212E3,1.108E3,1.084E3,1.025E3,8.24E2,9.07E2,9.32E2,8.2E2,7.34E2,7.43E2,7.37E2,7.35E2,2.75E2,2.84E2,2.65E2,3.74E2,4.83E2,3.57E2,3.71E2,2.82E2,2.77E2,2.82E2,2.74E2,1.84E2,3.59E2,3.85E2,3.66E2,2.76E2,3.7E2,2.76E2,3.68E2,3.68E2,5.41E2,4.67E2,4.57E2,5.61E2,5.48E2,6.57E2,5.55E2,4.54E2,6.54E2],"tree_param":{"num_deleted":"0","num_feature":"19","num_nodes":"89","size_leaf_vector":"1"}},{"base_weights":[-1.1363816E0,-1.8226784E2,3.822126E2,-2.187298E2,-1.5275977E1,2.5531976E2,5.444261E2,-2.2517534E2,-1.5905759E2,-7.0763626E1,4.3681526E1,1.8148643E2,3.2282248E2,4.7122107E2,6.388758E2,-1.13077E1,-1.0219889E1,-1.7785931E2,-1.4048216E2,-9.34957E1,-4.0972008E1,1.586543E1,7.163583E1,1.3753421E2,2.1502196E2,2.860871E2,3.5833588E2,4.3289716E2,5.0975934E2,5.9593536E2,6.8762305E2,-9.333804E0,-8.495118E0,-7.5706E0,-1.3057791E2,-1.0628775E2,-8.227309E1,-5.5626823E1,-2.8557281E1,5.5348563E-1,2.778791E1,5.852257E1,8.511069E1,1.1647458E2,1.5397057E2,1.9527368E2,2.3290317E2,1.3329355E1,1.511142E1,1.6916664E1,1.8810528E1,2.0640718E1,2.248583E1,2.4364784E1,2.644517E1,2.8542408E1,3.0709684E1,3.295148E1,3.5736305E1,-6.6746836E0,-6.092563E0,-5.62355E0,-4.990625E0,-4.396213E0,-3.7362194E0,-3.0915773E0,-2.4563177E0,-1.7138941E0,-1.042398E0,-4.7230887E-1,2.8621286E-1,1.0209961E0,1.7530053E0,2.5000405E0,3.2285535E0,3.9684658E0,4.634911E0,5.255363E0,6.187945E0,7.085637E0,8.125991E0,9.258916E0,1.0174464E1,1.1105377E1,1.2019784E1],"categories":[],"categories_nodes":[],"categories_segments":[],"categories_sizes":[],"default_left":[0,0,0,0,0,0,0,0,0,0,0,0,0,0,0,0,0,0,0,0,0,0,0,0,0,0,0,0,0,0,0,0,0,0,0,0,0,0,0,0,0,0,0,0,0,0,0,0,0,0,0,0,0,0,0,0,0,0,0,0,0,0,0,0,0,0,0,0,0,0,0,0,0,0,0,0,0,0,0,0,0,0,0,0,0],"id":6,"left_children":[1,3,5,7,9,11,13,15,17,19,21,23,25,27,29,-1,-1,31,33,35,37,39,41,43,45,47,49,51,53,55,57,-1,-1,-1,59,61,63,65,67,69,71,73,75,77,79,81,83,-1,-1,-1,-1,-1,-1,-1,-1,-1,-1,-1,-1,-1,-1,-1,-1,-1,-1,-1,-1,-1,-1,-1,-1,-1,-1,-1,-1,-1,-1,-1,-1,-1,-1,-1,-1,-1,-1],"loss_changes":[3.052223E9,1.8176096E8,2.9019443E8,9.38816E6,1.7508422E7,3.9394336E7,4.2497664E7,4.03456E5,8.1042E5,1.863279E6,2.016683E6,5.546416E6,5.29072E6,4.935296E6,5.241984E6,0E0,0E0,5.1416E4,1.10996E5,2.1564E5,2.1582462E5,2.37673E5,2.236685E5,5.49744E5,7.11624E5,5.60576E5,6.22848E5,4.0784E5,4.88384E5,3.10336E5,5.03936E5,0E0,0E0,0E0,4.4E1,1.7881E4,2.9135E4,1.902475E4,2.7907562E4,2.957818E4,3.8505688E4,3.073875E4,2.03485E4,4.6859E4,7.3172E4,4.7328E4,3.7196E4,0E0,0E0,0E0,0E0,0E0,0E0,0E0,0E0,0E0,0E0,0E0,0E0,0E0,0E0,0E0,0E0,0E0,0E0,0E0,0E0,0E0,0E0,0E0,0E0,0E0,0E0,0E0,0E0,0E0,0E0,0E0,0E0,0E0,0E0,0E0,0E0,0E0,0E0],"parents":[2147483647,0,0,1,1,2,2,3,3,4,4,5,5,6,6,7,7,8,8,9,9,10,10,11,11,12,12,13,13,14,14,17,17,18,18,19,19,20,20,21,21,22,22,23,23,24,24,25,25,26,26,27,27,28,28,29,29,30,30,34,34,35,35,36,36,37,37,38,38,39,39,40,40,41,41,42,42,43,43,44,44,45,45,46,46],"right_children":[2,4,6,8,10,12,14,16,18,20,22,24,26,28,30,-1,-1,32,34,36,38,40,42,44,46,48,50,52,54,56,58,-1,-1,-1,60,62,64,66,68,70,72,74,76,78,80,82,84,-1,-1,-1,-1,-1,-1,-1,-1,-1,-1,-1,-1,-1,-1,-1,-1,-1,-1,-1,-1,-1,-1,-1,-1,-1,-1,-1,-1,-1,-1,-1,-1,-1,-1,-1,-1,-1,-1],"split_conditions":[4.510125E3,1.4847142E3,8.6705E3,4.52375E2,2.9248572E3,6.637857E3,1.0837375E4,1.26E2,9.297143E2,2.202625E3,3.731E3,5.5737144E3,7.6274287E3,9.685E3,1.2049375E4,-1.13077E1,-1.0219889E1,6.73E2,1.183125E3,1.823E3,2.555625E3,3.319875E3,4.142E3,4.9947144E3,6.1172856E3,7.074E3,8.102E3,9.141E3,1.0201143E4,1.1394875E4,1.2669286E4,-9.333804E0,-8.495118E0,-7.5706E0,1.4035E3,1.674375E3,2.011375E3,2.372E3,2.77025E3,3.090875E3,3.5115715E3,3.915875E3,4.3415E3,4.709857E3,5.226143E3,5.834625E3,6.3432856E3,1.3329355E1,1.511142E1,1.6916664E1,1.8810528E1,2.0640718E1,2.248583E1,2.4364784E1,2.644517E1,2.8542408E1,3.0709684E1,3.295148E1,3.5736305E1,-6.6746836E0,-6.092563E0,-5.62355E0,-4.990625E0,-4.396213E0,-3.7362194E0,-3.0915773E0,-2.4563177E0,-1.7138941E0,-1.042398E0,-4.7230887E-1,2.8621286E-1,1.0209961E0,1.7530053E0,2.5000405E0,3.2285535E0,3.9684658E0,4.634911E0,5.255363E0,6.187945E0,7.085637E0,8.125991E0,9.258916E0,1.0174464E1,1.1105377E1,1.2019784E1],"split_indices":[0,0,0,0,0,0,0,0,0,0,0,0,0,0,0,0,0,0,0,0,0,0,0,0,0,0,0,0,0,0,0,0,0,0,0,0,0,0,0,0,0,0,0,0,0,0,0,0,0,0,0,0,0,0,0,0,0,0,0,0,0,0,0,0,0,0,0,0,0,0,0,0,0,0,0,0,0,0,0,0,0,0,0,0,0],"split_type":[0,0,0,0,0,0,0,0,0,0,0,0,0,0,0,0,0,0,0,0,0,0,0,0,0,0,0,0,0,0,0,0,0,0,0,0,0,0,0,0,0,0,0,0,0,0,0,0,0,0,0,0,0,0,0,0,0,0,0,0,0,0,0,0,0,0,0,0,0,0,0,0,0,0,0,0,0,0,0,0,0,0,0,0,0],"sum_hessian":[4.3955E4,2.9851E4,1.4104E4,2.4501E4,5.35E3,7.915E3,6.189E3,2.211E4,2.391E3,2.756E3,2.594E3,3.782E3,4.133E3,3.49E3,2.699E3,2.1106E4,1.004E3,1.184E3,1.207E3,1.562E3,1.194E3,1.301E3,1.293E3,1.639E3,2.143E3,2.036E3,2.097E3,1.756E3,1.734E3,1.442E3,1.257E3,5.51E2,6.33E2,5.67E2,6.4E2,7.26E2,8.36E2,5.46E2,6.48E2,5.7E2,7.31E2,6.58E2,6.35E2,7.22E2,9.17E2,1.024E3,1.119E3,9.3E2,1.106E3,9.99E2,1.098E3,8.12E2,9.44E2,8.1E2,9.24E2,6.21E2,8.21E2,6.24E2,6.33E2,4.69E2,1.71E2,3.63E2,3.63E2,4.72E2,3.64E2,2.75E2,2.71E2,3.7E2,2.78E2,1.94E2,3.76E2,3.65E2,3.66E2,2.77E2,3.81E2,3.68E2,2.67E2,2.88E2,4.34E2,3.84E2,5.33E2,4.7E2,5.54E2,4.71E2,6.48E2],"tree_param":{"num_deleted":"0","num_feature":"19","num_nodes":"85","size_leaf_vector":"1"}},{"base_weights":[4.9846756E-1,-1.7195424E2,3.6614755E2,-2.0707329E2,-8.486394E0,2.4749428E2,5.2218866E2,-2.1348984E2,-1.4410028E2,-6.23392E1,4.5901413E1,1.7885326E2,3.1493625E2,4.534928E2,6.099127E2,-2.1469946E2,-9.389009E0,-1.6002113E2,-1.2402948E2,-8.327266E1,-3.300634E1,1.9497883E1,7.199108E1,1.3696333E2,2.1197484E2,2.8149023E2,3.480454E2,4.1637512E2,4.8804172E2,5.7104114E2,6.5615875E2,-1.0751117E1,-1.0271839E1,-8.338147E0,-7.392878E0,-6.5760355E0,-5.7350626E0,-9.41174E1,-7.08515E1,-4.4323444E1,-2.1547693E1,8.61387E0,3.3482006E1,5.9323803E1,8.456874E1,1.1760218E2,1.5491714E2,1.9190627E2,2.2832384E2,2.625782E2,2.9644592E2,1.6601015E1,1.8375345E1,1.9858973E1,2.1552116E1,2.3355505E1,2.5332651E1,2.735584E1,2.9437101E1,3.175218E1,3.440597E1,-4.9683914E0,-4.364717E0,-3.7774475E0,-3.1262171E0,-2.5338063E0,-1.9041363E0,-1.2668697E0,-6.809467E-1,5.0023533E-2,7.990486E-1,1.4656947E0,2.089773E0,2.6625667E0,3.359549E0,3.9393628E0,4.59932E0,5.3661456E0,6.282288E0,7.209118E0,8.223226E0,9.188301E0,1.0064428E1,1.0908833E1,1.1855083E1,1.2568519E1,1.3464911E1,1.4343482E1,1.527213E1],"categories":[],"categories_nodes":[],"categories_segments":[],"categories_sizes":[],"default_left":[0,0,0,0,0,0,0,0,0,0,0,0,0,0,0,0,0,0,0,0,0,0,0,0,0,0,0,0,0,0,0,0,0,0,0,0,0,0,0,0,0,0,0,0,0,0,0,0,0,0,0,0,0,0,0,0,0,0,0,0,0,0,0,0,0,0,0,0,0,0,0,0,0,0,0,0,0,0,0,0,0,0,0,0,0,0,0,0,0],"id":7,"left_children":[1,3,5,7,9,11,13,15,17,19,21,23,25,27,29,31,-1,33,35,37,39,41,43,45,47,49,51,53,55,57,59,-1,-1,-1,-1,-1,-1,61,63,65,67,69,71,73,75,77,79,81,83,85,87,-1,-1,-1,-1,-1,-1,-1,-1,-1,-1,-1,-1,-1,-1,-1,-1,-1,-1,-1,-1,-1,-1,-1,-1,-1,-1,-1,-1,-1,-1,-1,-1,-1,-1,-1,-1,-1,-1],"loss_changes":[2.77584E9,1.717239E8,2.6107738E8,9.918656E6,1.5499861E7,3.7052E7,3.644147E7,6.54464E5,7.08716E5,1.629979E6,1.812363E6,5.48612E6,4.378016E6,4.183808E6,4.430464E6,1.9584E4,0E0,7.9324E4,5.5702E4,2.02258E5,1.428585E5,1.9909806E5,2.05929E5,5.92874E5,6.83912E5,4.92368E5,5.10144E5,2.9504E5,4.51296E5,2.96128E5,3.82304E5,0E0,0E0,0E0,0E0,0E0,0E0,2.088E4,2.371425E4,2.0152625E4,1.6271266E4,4.1377465E4,1.8630062E4,2.80955E4,2.11425E4,5.6795E4,6.9448E4,3.954E4,5.6668E4,1.6E1,8.704E3,0E0,0E0,0E0,0E0,0E0,0E0,0E0,0E0,0E0,0E0,0E0,0E0,0E0,0E0,0E0,0E0,0E0,0E0,0E0,0E0,0E0,0E0,0E0,0E0,0E0,0E0,0E0,0E0,0E0,0E0,0E0,0E0,0E0,0E0,0E0,0E0,0E0,0E0],"parents":[2147483647,0,0,1,1,2,2,3,3,4,4,5,5,6,6,7,7,8,8,9,9,10,10,11,11,12,12,13,13,14,14,15,15,17,17,18,18,19,19,20,20,21,21,22,22,23,23,24,24,25,25,26,26,27,27,28,28,29,29,30,30,37,37,38,38,39,39,40,40,41,41,42,42,43,43,44,44,45,45,46,46,47,47,48,48,49,49,50,50],"right_children":[2,4,6,8,10,12,14,16,18,20,22,24,26,28,30,32,-1,34,36,38,40,42,44,46,48,50,52,54,56,58,60,-1,-1,-1,-1,-1,-1,62,64,66,68,70,72,74,76,78,80,82,84,86,88,-1,-1,-1,-1,-1,-1,-1,-1,-1,-1,-1,-1,-1,-1,-1,-1,-1,-1,-1,-1,-1,-1,-1,-1,-1,-1,-1,-1,-1,-1,-1,-1,-1,-1,-1,-1,-1,-1],"split_conditions":[4.5865713E3,1.5785E3,8.770375E3,5.57375E2,3.0038572E3,6.766875E3,1.091275E4,2.52875E2,1.0932858E3,2.3015E3,3.7985E3,5.692143E3,7.7572856E3,9.7395E3,1.2134857E4,5.4857143E1,-9.389009E0,8.8325E2,1.354E3,1.9447142E3,2.666E3,3.462875E3,4.190857E3,5.1085E3,6.204143E3,7.223E3,8.27425E3,9.191571E3,1.026325E4,1.1463E4,1.2868E4,-1.0751117E1,-1.0271839E1,-8.338147E0,-7.392878E0,-6.5760355E0,-5.7350626E0,1.792375E3,2.1457144E3,2.483E3,2.8695715E3,3.2684285E3,3.676E3,4.0375E3,4.395375E3,4.8375713E3,5.401143E3,5.963875E3,6.465E3,6.937143E3,7.474875E3,1.6601015E1,1.8375345E1,1.9858973E1,2.1552116E1,2.3355505E1,2.5332651E1,2.735584E1,2.9437101E1,3.175218E1,3.440597E1,-4.9683914E0,-4.364717E0,-3.7774475E0,-3.1262171E0,-2.5338063E0,-1.9041363E0,-1.2668697E0,-6.809467E-1,5.0023533E-2,7.990486E-1,1.4656947E0,2.089773E0,2.6625667E0,3.359549E0,3.9393628E0,4.59932E0,5.3661456E0,6.282288E0,7.209118E0,8.223226E0,9.188301E0,1.0064428E1,1.0908833E1,1.1855083E1,1.2568519E1,1.3464911E1,1.4343482E1,1.527213E1],"split_indices":[0,0,0,0,0,0,0,0,0,0,0,0,0,0,0,0,0,0,0,0,0,0,0,0,0,0,0,0,0,0,0,0,0,0,0,0,0,0,0,0,0,0,0,0,0,0,0,0,0,0,0,0,0,0,0,0,0,0,0,0,0,0,0,0,0,0,0,0,0,0,0,0,0,0,0,0,0,0,0,0,0,0,0,0,0,0,0,0,0],"split_type":[0,0,0,0,0,0,0,0,0,0,0,0,0,0,0,0,0,0,0,0,0,0,0,0,0,0,0,0,0,0,0,0,0,0,0,0,0,0,0,0,0,0,0,0,0,0,0,0,0,0,0,0,0,0,0,0,0,0,0,0,0,0,0,0,0,0,0,0,0,0,0,0,0,0,0,0,0,0,0,0,0,0,0,0,0,0,0,0,0],"sum_hessian":[4.4019E4,2.9912E4,1.4107E4,2.4622E4,5.29E3,8.015E3,6.092E3,2.2343E4,2.279E3,2.658E3,2.632E3,3.974E3,4.041E3,3.42E3,2.672E3,2.1332E4,1.011E3,1.267E3,1.012E3,1.55E3,1.108E3,1.309E3,1.323E3,1.757E3,2.217E3,2.015E3,2.026E3,1.655E3,1.765E3,1.459E3,1.213E3,2.0592E4,7.4E2,8.07E2,4.6E2,5.54E2,4.58E2,8.24E2,7.26E2,5.56E2,5.52E2,7.37E2,5.72E2,6.62E2,6.61E2,8.49E2,9.08E2,1.001E3,1.216E3,8.98E2,1.117E3,1.121E3,9.05E2,7.29E2,9.26E2,8.43E2,9.22E2,6.34E2,8.25E2,7.43E2,4.7E2,4.58E2,3.66E2,4.59E2,2.67E2,2.72E2,2.84E2,3.72E2,1.8E2,3.63E2,3.74E2,3.84E2,1.88E2,3.78E2,2.84E2,3.78E2,2.83E2,3.79E2,4.7E2,4.35E2,4.73E2,5.47E2,4.54E2,5.76E2,6.4E2,3.51E2,5.47E2,5.57E2,5.6E2],"tree_param":{"num_deleted":"0","num_feature":"19","num_nodes":"89","size_leaf_vector":"1"}},{"base_weights":[7.3105145E-1,-1.643757E2,3.4510742E2,-1.9737645E2,-1.3893868E1,2.2839246E2,4.8931024E2,-2.0321423E2,-1.4345807E2,-6.3836674E1,3.915047E1,1.6144606E2,2.883174E2,4.2168768E2,5.743596E2,-1.0207361E1,-1.8530058E2,-1.5927635E2,-1.2510217E2,-8.43949E1,-3.734935E1,1.4610146E1,6.4741234E1,1.24363914E2,1.9236877E2,2.5504997E2,3.202556E2,3.8733017E2,4.561174E2,5.327014E2,6.179344E2,-9.51813E0,-8.897048E0,-8.371977E0,-7.5483623E0,-6.6927247E0,-5.810204E0,-9.47389E1,-7.285729E1,-5.0484085E1,-2.5902773E1,3.5689878E-1,2.5016224E1,5.093547E1,7.513491E1,1.0538436E2,1.39304E2,1.7439223E2,2.0733508E2,1.1874962E1,1.3507347E1,1.5121121E1,1.6825037E1,1.847357E1,2.0139994E1,2.1812437E1,2.3654125E1,2.5525042E1,2.7474768E1,2.9635843E1,3.227177E1,-5.074448E0,-4.453296E0,-3.9073422E0,-3.3721492E0,-2.7961812E0,-2.2120636E0,-1.6249942E0,-1.0243195E0,-4.3829727E-1,2.6016068E-1,9.154157E-1,1.5864443E0,2.2535198E0,2.8224902E0,3.4240868E0,4.091941E0,4.736764E0,5.6044593E0,6.492322E0,7.441405E0,8.258997E0,9.034694E0,9.954792E0,1.0762863E1],"categories":[],"categories_nodes":[],"categories_segments":[],"categories_sizes":[],"default_left":[0,0,0,0,0,0,0,0,0,0,0,0,0,0,0,0,0,0,0,0,0,0,0,0,0,0,0,0,0,0,0,0,0,0,0,0,0,0,0,0,0,0,0,0,0,0,0,0,0,0,0,0,0,0,0,0,0,0,0,0,0,0,0,0,0,0,0,0,0,0,0,0,0,0,0,0,0,0,0,0,0,0,0,0,0],"id":8,"left_children":[1,3,5,7,9,11,13,15,17,19,21,23,25,27,29,-1,31,33,35,37,39,41,43,45,47,49,51,53,55,57,59,-1,-1,-1,-1,-1,-1,61,63,65,67,69,71,73,75,77,79,81,83,-1,-1,-1,-1,-1,-1,-1,-1,-1,-1,-1,-1,-1,-1,-1,-1,-1,-1,-1,-1,-1,-1,-1,-1,-1,-1,-1,-1,-1,-1,-1,-1,-1,-1,-1,-1],"loss_changes":[2.5035525E9,1.4779578E8,2.4004454E8,7.653888E6,1.4186225E7,3.159824E7,3.646208E7,3.3024E5,6.73452E5,1.498669E6,1.6299852E6,4.250896E6,4.33936E6,4.033344E6,4.79712E6,0E0,7.144E3,6.1476E4,7.089E4,1.78321E5,1.80162E5,1.9681225E5,1.78552E5,4.668E5,5.10264E5,4.77168E5,5.12112E5,3.45136E5,3.90912E5,2.60448E5,5.70368E5,0E0,0E0,0E0,0E0,0E0,0E0,2.21695E4,1.5865E4,1.6576375E4,2.2453094E4,2.4848643E4,3.39555E4,1.52115E4,2.664275E4,4.3074E4,6.5974E4,2.4086E4,2.914E4,0E0,0E0,0E0,0E0,0E0,0E0,0E0,0E0,0E0,0E0,0E0,0E0,0E0,0E0,0E0,0E0,0E0,0E0,0E0,0E0,0E0,0E0,0E0,0E0,0E0,0E0,0E0,0E0,0E0,0E0,0E0,0E0,0E0,0E0,0E0,0E0],"parents":[2147483647,0,0,1,1,2,2,3,3,4,4,5,5,6,6,7,7,8,8,9,9,10,10,11,11,12,12,13,13,14,14,16,16,17,17,18,18,19,19,20,20,21,21,22,22,23,23,24,24,25,25,26,26,27,27,28,28,29,29,30,30,37,37,38,38,39,39,40,40,41,41,42,42,43,43,44,44,45,45,46,46,47,47,48,48],"right_children":[2,4,6,8,10,12,14,16,18,20,22,24,26,28,30,-1,32,34,36,38,40,42,44,46,48,50,52,54,56,58,60,-1,-1,-1,-1,-1,-1,62,64,66,68,70,72,74,76,78,80,82,84,-1,-1,-1,-1,-1,-1,-1,-1,-1,-1,-1,-1,-1,-1,-1,-1,-1,-1,-1,-1,-1,-1,-1,-1,-1,-1,-1,-1,-1,-1,-1,-1,-1,-1,-1,-1],"split_conditions":[4.510125E3,1.4847142E3,8.624714E3,4.52375E2,2.9248572E3,6.588857E3,1.0778E4,1.0842857E2,9.631429E2,2.202625E3,3.731E3,5.5737144E3,7.5744287E3,9.62425E3,1.1969286E4,-1.0207361E1,3.35625E2,6.94125E2,1.2185714E3,1.8604286E3,2.555625E3,3.319875E3,4.0922856E3,4.9947144E3,6.0687144E3,7.024857E3,8.0565E3,9.0905E3,1.014125E4,1.132525E4,1.2669286E4,-9.51813E0,-8.897048E0,-8.371977E0,-7.5483623E0,-6.6927247E0,-5.810204E0,1.674375E3,2.011375E3,2.372E3,2.72E3,3.090875E3,3.5115715E3,3.915875E3,4.28425E3,4.709857E3,5.29075E3,5.787875E3,6.3432856E3,1.1874962E1,1.3507347E1,1.5121121E1,1.6825037E1,1.847357E1,2.0139994E1,2.1812437E1,2.3654125E1,2.5525042E1,2.7474768E1,2.9635843E1,3.227177E1,-5.074448E0,-4.453296E0,-3.9073422E0,-3.3721492E0,-2.7961812E0,-2.2120636E0,-1.6249942E0,-1.0243195E0,-4.3829727E-1,2.6016068E-1,9.154157E-1,1.5864443E0,2.2535198E0,2.8224902E0,3.4240868E0,4.091941E0,4.736764E0,5.6044593E0,6.492322E0,7.441405E0,8.258997E0,9.034694E0,9.954792E0,1.0762863E1],"split_indices":[0,0,0,0,0,0,0,0,0,0,0,0,0,0,0,0,0,0,0,0,0,0,0,0,0,0,0,0,0,0,0,0,0,0,0,0,0,0,0,0,0,0,0,0,0,0,0,0,0,0,0,0,0,0,0,0,0,0,0,0,0,0,0,0,0,0,0,0,0,0,0,0,0,0,0,0,0,0,0,0,0,0,0,0,0],"split_type":[0,0,0,0,0,0,0,0,0,0,0,0,0,0,0,0,0,0,0,0,0,0,0,0,0,0,0,0,0,0,0,0,0,0,0,0,0,0,0,0,0,0,0,0,0,0,0,0,0,0,0,0,0,0,0,0,0,0,0,0,0,0,0,0,0,0,0,0,0,0,0,0,0,0,0,0,0,0,0,0,0,0,0,0,0],"sum_hessian":[4.4029E4,2.9761E4,1.4268E4,2.4408E4,5.353E3,7.887E3,6.381E3,2.2021E4,2.387E3,2.757E3,2.596E3,3.727E3,4.16E3,3.558E3,2.823E3,2.0921E4,1.1E3,1.278E3,1.109E3,1.551E3,1.206E3,1.326E3,1.27E3,1.697E3,2.03E3,2.042E3,2.118E3,1.787E3,1.771E3,1.45E3,1.373E3,6.37E2,4.63E2,6.35E2,6.43E2,5.52E2,5.57E2,8.14E2,7.37E2,5.6E2,6.46E2,5.6E2,7.66E2,5.48E2,7.22E2,7.51E2,9.46E2,9.28E2,1.102E3,9.52E2,1.09E3,1.019E3,1.099E3,8.41E2,9.46E2,8.28E2,9.43E2,6.38E2,8.12E2,7.28E2,6.45E2,3.64E2,4.5E2,3.66E2,3.71E2,2.95E2,2.65E2,2.89E2,3.57E2,1.94E2,3.66E2,3.85E2,3.81E2,2.7E2,2.78E2,3.68E2,3.54E2,2.96E2,4.55E2,4.82E2,4.64E2,3.88E2,5.4E2,5.53E2,5.49E2],"tree_param":{"num_deleted":"0","num_feature":"19","num_nodes":"85","size_leaf_vector":"1"}},{"base_weights":[5.748072E-1,-1.5544905E2,3.3056665E2,-1.8683618E2,-7.997411E0,2.2779448E2,4.7676883E2,-1.9256075E2,-1.2881416E2,-5.48105E1,4.35789E1,1.6590514E2,2.9229214E2,4.198763E2,5.5796375E2,-1.937695E2,-1.6898196E2,-1.41844E2,-1.10222015E2,-7.508434E1,-2.7737993E1,2.1112703E1,6.70582E1,1.27231636E2,1.9779512E2,2.647608E2,3.2540726E2,3.9150504E2,4.57715E2,5.29348E2,6.0234265E2,-9.704183E0,-9.286689E0,-8.713087E0,-8.174187E0,-7.4576716E0,-6.614017E0,-5.7977777E0,-5.0824404E0,-8.4003075E1,-6.235711E1,-4.0274857E1,-1.7833443E1,9.853094E0,3.1840752E1,5.698963E1,7.845758E1,1.0982485E2,1.4685912E2,1.8057068E2,2.134753E2,2.4847998E2,1.4020111E1,1.5606552E1,1.7103413E1,1.8713644E1,2.0475084E1,2.214979E1,2.3803574E1,2.564221E1,2.7489157E1,2.9542805E1,3.237454E1,-4.487281E0,-3.8863473E0,-3.336374E0,-2.8193157E0,-2.2876654E0,-1.7245238E0,-1.1410673E0,-5.193773E-1,1.6685121E-1,7.242768E-1,1.327508E0,1.9517802E0,2.5091822E0,3.0972948E0,3.6485047E0,4.173401E0,5.022144E0,5.9973035E0,6.8776765E0,7.7798877E0,8.574109E0,9.461967E0,1.0228994E1,1.1047511E1,1.2004147E1,1.2822751E1],"categories":[],"categories_nodes":[],"categories_segments":[],"categories_sizes":[],"default_left":[0,0,0,0,0,0,0,0,0,0,0,0,0,0,0,0,0,0,0,0,0,0,0,0,0,0,0,0,0,0,0,0,0,0,0,0,0,0,0,0,0,0,0,0,0,0,0,0,0,0,0,0,0,0,0,0,0,0,0,0,0,0,0,0,0,0,0,0,0,0,0,0,0,0,0,0,0,0,0,0,0,0,0,0,0,0,0,0,0],"id":9,"left_children":[1,3,5,7,9,11,13,15,17,19,21,23,25,27,29,31,33,35,37,39,41,43,45,47,49,51,53,55,57,59,61,-1,-1,-1,-1,-1,-1,-1,-1,63,65,67,69,71,73,75,77,79,81,83,85,87,-1,-1,-1,-1,-1,-1,-1,-1,-1,-1,-1,-1,-1,-1,-1,-1,-1,-1,-1,-1,-1,-1,-1,-1,-1,-1,-1,-1,-1,-1,-1,-1,-1,-1,-1,-1,-1],"loss_changes":[2.2674698E9,1.3838746E8,2.1232205E8,8.164032E6,1.2675819E7,3.309872E7,2.6719872E7,6.06848E5,5.2144E5,1.508391E6,1.316255E6,5.204008E6,3.619936E6,3.508352E6,2.730304E6,1.7792E4,3.502E3,7.1144E4,3.3338E4,1.73314E5,1.4580469E5,1.5406056E5,1.3567E5,6.395E5,5.88592E5,4.96944E5,3.00448E5,4.57696E5,1.85184E5,2.13152E5,1.01792E5,0E0,0E0,0E0,0E0,0E0,0E0,0E0,0E0,2.6254E4,1.325125E4,1.49004375E4,2.4312078E4,1.8817492E4,2.3858125E4,1.888475E4,9.58125E3,8.4903E4,5.1702E4,5.5236E4,3.5252E4,1.2024E4,0E0,0E0,0E0,0E0,0E0,0E0,0E0,0E0,0E0,0E0,0E0,0E0,0E0,0E0,0E0,0E0,0E0,0E0,0E0,0E0,0E0,0E0,0E0,0E0,0E0,0E0,0E0,0E0,0E0,0E0,0E0,0E0,0E0,0E0,0E0,0E0,0E0],"parents":[2147483647,0,0,1,1,2,2,3,3,4,4,5,5,6,6,7,7,8,8,9,9,10,10,11,11,12,12,13,13,14,14,15,15,16,16,17,17,18,18,19,19,20,20,21,21,22,22,23,23,24,24,25,25,26,26,27,27,28,28,29,29,30,30,39,39,40,40,41,41,42,42,43,43,44,44,45,45,46,46,47,47,48,48,49,49,50,50,51,51],"right_children":[2,4,6,8,10,12,14,16,18,20,22,24,26,28,30,32,34,36,38,40,42,44,46,48,50,52,54,56,58,60,62,-1,-1,-1,-1,-1,-1,-1,-1,64,66,68,70,72,74,76,78,80,82,84,86,88,-1,-1,-1,-1,-1,-1,-1,-1,-1,-1,-1,-1,-1,-1,-1,-1,-1,-1,-1,-1,-1,-1,-1,-1,-1,-1,-1,-1,-1,-1,-1,-1,-1,-1,-1,-1,-1],"split_conditions":[4.5865713E3,1.5785E3,8.938286E3,5.94125E2,3.090875E3,6.889E3,1.1169875E4,2.52875E2,1.14375E3,2.3015E3,3.856125E3,5.787875E3,7.963125E3,1.008225E4,1.2420429E4,3.675E1,4.037143E2,8.8325E2,1.4035E3,1.976625E3,2.666E3,3.462875E3,4.2384287E3,5.226143E3,6.3432856E3,7.43525E3,8.470375E3,9.517143E3,1.064275E4,1.1833375E4,1.3235429E4,-9.704183E0,-9.286689E0,-8.713087E0,-8.174187E0,-7.4576716E0,-6.614017E0,-5.7977777E0,-5.0824404E0,1.792375E3,2.1457144E3,2.483E3,2.8695715E3,3.2684285E3,3.676E3,4.0375E3,4.395375E3,4.9427144E3,5.51325E3,6.0687144E3,6.588857E3,7.1804287E3,1.4020111E1,1.5606552E1,1.7103413E1,1.8713644E1,2.0475084E1,2.214979E1,2.3803574E1,2.564221E1,2.7489157E1,2.9542805E1,3.237454E1,-4.487281E0,-3.8863473E0,-3.336374E0,-2.8193157E0,-2.2876654E0,-1.7245238E0,-1.1410673E0,-5.193773E-1,1.6685121E-1,7.242768E-1,1.327508E0,1.9517802E0,2.5091822E0,3.0972948E0,3.6485047E0,4.173401E0,5.022144E0,5.9973035E0,6.8776765E0,7.7798877E0,8.574109E0,9.461967E0,1.0228994E1,1.1047511E1,1.2004147E1,1.2822751E1],"split_indices":[0,0,0,0,0,0,0,0,0,0,0,0,0,0,0,0,0,0,0,0,0,0,0,0,0,0,0,0,0,0,0,0,0,0,0,0,0,0,0,0,0,0,0,0,0,0,0,0,0,0,0,0,0,0,0,0,0,0,0,0,0,0,0,0,0,0,0,0,0,0,0,0,0,0,0,0,0,0,0,0,0,0,0,0,0,0,0,0,0],"split_type":[0,0,0,0,0,0,0,0,0,0,0,0,0,0,0,0,0,0,0,0,0,0,0,0,0,0,0,0,0,0,0,0,0,0,0,0,0,0,0,0,0,0,0,0,0,0,0,0,0,0,0,0,0,0,0,0,0,0,0,0,0,0,0,0,0,0,0,0,0,0,0,0,0,0,0,0,0,0,0,0,0,0,0,0,0,0,0,0,0],"sum_hessian":[4.4038E4,2.9901E4,1.4137E4,2.4653E4,5.248E3,8.303E3,5.834E3,2.2437E4,2.216E3,2.751E3,2.497E3,4.239E3,4.064E3,3.434E3,2.4E3,2.1336E4,1.101E3,1.299E3,9.17E2,1.572E3,1.179E3,1.277E3,1.22E3,1.918E3,2.321E3,2.224E3,1.84E3,1.969E3,1.465E3,1.467E3,9.33E2,2.0511E4,8.25E2,5.46E2,5.55E2,7.28E2,5.71E2,5.42E2,3.75E2,9.21E2,6.51E2,5.19E2,6.6E2,6.24E2,6.53E2,6.51E2,5.69E2,1.02E3,8.98E2,1.112E3,1.209E3,1.098E3,1.126E3,1.035E3,8.05E2,1.017E3,9.52E2,8.27E2,6.38E2,8.26E2,6.41E2,7.55E2,1.78E2,4.74E2,4.47E2,3.7E2,2.81E2,2.63E2,2.56E2,3.94E2,2.66E2,2.6E2,3.64E2,3.79E2,2.74E2,2.79E2,3.72E2,2.79E2,2.9E2,5.35E2,4.85E2,4.43E2,4.55E2,5.53E2,5.59E2,5.65E2,6.44E2,5.5E2,5.48E2],"tree_param":{"num_deleted":"0","num_feature":"19","num_nodes":"89","size_leaf_vector":"1"}},{"base_weights":[1.7205864E-1,-1.4801903E2,3.1441376E2,-1.7721663E2,-6.272033E0,2.17004E2,4.5320966E2,-1.8293268E2,-1.2105209E2,-5.0838924E1,4.0517666E1,1.5756316E2,2.7836267E2,3.9916513E2,5.3045264E2,-1.8408174E2,-1.6039908E2,-1.3492467E2,-1.03738815E2,-6.8620094E1,-2.5051914E1,1.9747566E1,6.3578804E1,1.1927343E2,1.8660704E2,2.5148952E2,3.0960934E2,3.6998984E2,4.332677E2,5.030296E2,5.73025E2,-9.218117E0,-8.796466E0,-8.275052E0,-7.7619333E0,-7.0766063E0,-6.2964063E0,-5.5130057E0,-4.7838073E0,-7.7043015E1,-5.663978E1,-3.4884125E1,-1.5005473E1,9.089978E0,3.0342653E1,5.4001225E1,7.4359856E1,1.0412172E2,1.3777391E2,1.6859232E2,2.0170938E2,2.3742967E2,1.3395881E1,1.4901354E1,1.6337332E1,1.7772856E1,1.9372984E1,2.0860994E1,2.251613E1,2.435672E1,2.6123428E1,2.8071638E1,3.0783392E1,-4.125901E0,-3.5795457E0,-3.044737E0,-2.5237331E0,-1.9958557E0,-1.4705316E0,-9.271664E-1,-3.8920996E-1,1.5324642E-1,6.832656E-1,1.2620735E0,1.8518318E0,2.380129E0,2.9457624E0,3.534263E0,4.0633693E0,4.682455E0,5.6357875E0,6.5377517E0,7.311938E0,8.021849E0,8.849945E0,9.588172E0,1.0440876E1,1.147698E1,1.2299919E1],"categories":[],"categories_nodes":[],"categories_segments":[],"categories_sizes":[],"default_left":[0,0,0,0,0,0,0,0,0,0,0,0,0,0,0,0,0,0,0,0,0,0,0,0,0,0,0,0,0,0,0,0,0,0,0,0,0,0,0,0,0,0,0,0,0,0,0,0,0,0,0,0,0,0,0,0,0,0,0,0,0,0,0,0,0,0,0,0,0,0,0,0,0,0,0,0,0,0,0,0,0,0,0,0,0,0,0,0,0],"id":10,"left_children":[1,3,5,7,9,11,13,15,17,19,21,23,25,27,29,31,33,35,37,39,41,43,45,47,49,51,53,55,57,59,61,-1,-1,-1,-1,-1,-1,-1,-1,63,65,67,69,71,73,75,77,79,81,83,85,87,-1,-1,-1,-1,-1,-1,-1,-1,-1,-1,-1,-1,-1,-1,-1,-1,-1,-1,-1,-1,-1,-1,-1,-1,-1,-1,-1,-1,-1,-1,-1,-1,-1,-1,-1,-1,-1],"loss_changes":[2.0461901E9,1.2357549E8,1.9027789E8,7.9264E6,1.063903E7,3.014048E7,2.4025728E7,5.52256E5,5.36012E5,1.196402E6,1.1909312E6,4.655168E6,3.340512E6,3.242432E6,2.498496E6,1.6512E4,3.216E3,5.7552E4,4.3239E4,1.51642E5,1.0497219E5,1.4775978E5,1.177235E5,4.94984E5,6.16224E5,4.43168E5,2.75392E5,3.31952E5,2.4208E5,1.96576E5,1.13088E5,0E0,0E0,0E0,0E0,0E0,0E0,0E0,0E0,2.1107E4,1.3767625E4,1.3674375E4,1.3396E4,1.801425E4,2.1499875E4,1.694175E4,8.2665E3,7.9716E4,2.9301E4,4.6744E4,5.1516E4,2.4048E4,0E0,0E0,0E0,0E0,0E0,0E0,0E0,0E0,0E0,0E0,0E0,0E0,0E0,0E0,0E0,0E0,0E0,0E0,0E0,0E0,0E0,0E0,0E0,0E0,0E0,0E0,0E0,0E0,0E0,0E0,0E0,0E0,0E0,0E0,0E0,0E0,0E0],"parents":[2147483647,0,0,1,1,2,2,3,3,4,4,5,5,6,6,7,7,8,8,9,9,10,10,11,11,12,12,13,13,14,14,15,15,16,16,17,17,18,18,19,19,20,20,21,21,22,22,23,23,24,24,25,25,26,26,27,27,28,28,29,29,30,30,39,39,40,40,41,41,42,42,43,43,44,44,45,45,46,46,47,47,48,48,49,49,50,50,51,51],"right_children":[2,4,6,8,10,12,14,16,18,20,22,24,26,28,30,32,34,36,38,40,42,44,46,48,50,52,54,56,58,60,62,-1,-1,-1,-1,-1,-1,-1,-1,64,66,68,70,72,74,76,78,80,82,84,86,88,-1,-1,-1,-1,-1,-1,-1,-1,-1,-1,-1,-1,-1,-1,-1,-1,-1,-1,-1,-1,-1,-1,-1,-1,-1,-1,-1,-1,-1,-1,-1,-1,-1,-1,-1,-1,-1],"split_conditions":[4.5865713E3,1.6224286E3,8.938286E3,5.94125E2,3.090875E3,6.889E3,1.1169875E4,2.52875E2,1.14375E3,2.372E3,3.856125E3,5.744375E3,7.963125E3,1.0023125E4,1.2420429E4,5.4857143E1,4.037143E2,8.8325E2,1.4035E3,2.011375E3,2.72E3,3.462875E3,4.2384287E3,5.226143E3,6.291143E3,7.474875E3,8.515E3,9.517143E3,1.0579143E4,1.1833375E4,1.3235429E4,-9.218117E0,-8.796466E0,-8.275052E0,-7.7619333E0,-7.0766063E0,-6.2964063E0,-5.5130057E0,-4.7838073E0,1.823E3,2.202625E3,2.555625E3,2.9248572E3,3.2684285E3,3.676E3,4.0375E3,4.45225E3,4.8942856E3,5.51325E3,6.015125E3,6.5464287E3,7.223E3,1.3395881E1,1.4901354E1,1.6337332E1,1.7772856E1,1.9372984E1,2.0860994E1,2.251613E1,2.435672E1,2.6123428E1,2.8071638E1,3.0783392E1,-4.125901E0,-3.5795457E0,-3.044737E0,-2.5237331E0,-1.9958557E0,-1.4705316E0,-9.271664E-1,-3.8920996E-1,1.5324642E-1,6.832656E-1,1.2620735E0,1.8518318E0,2.380129E0,2.9457624E0,3.534263E0,4.0633693E0,4.682455E0,5.6357875E0,6.5377517E0,7.311938E0,8.021849E0,8.849945E0,9.588172E0,1.0440876E1,1.147698E1,1.2299919E1],"split_indices":[0,0,0,0,0,0,0,0,0,0,0,0,0,0,0,0,0,0,0,0,0,0,0,0,0,0,0,0,0,0,0,0,0,0,0,0,0,0,0,0,0,0,0,0,0,0,0,0,0,0,0,0,0,0,0,0,0,0,0,0,0,0,0,0,0,0,0,0,0,0,0,0,0,0,0,0,0,0,0,0,0,0,0,0,0,0,0,0,0],"split_type":[0,0,0,0,0,0,0,0,0,0,0,0,0,0,0,0,0,0,0,0,0,0,0,0,0,0,0,0,0,0,0,0,0,0,0,0,0,0,0,0,0,0,0,0,0,0,0,0,0,0,0,0,0,0,0,0,0,0,0,0,0,0,0,0,0,0,0,0,0,0,0,0,0,0,0,0,0,0,0,0,0,0,0,0,0,0,0,0,0],"sum_hessian":[4.3938E4,2.9858E4,1.408E4,2.4758E4,5.1E3,8.275E3,5.805E3,2.2469E4,2.289E3,2.612E3,2.488E3,4.205E3,4.07E3,3.419E3,2.386E3,2.1372E4,1.097E3,1.267E3,1.022E3,1.545E3,1.067E3,1.31E3,1.178E3,1.816E3,2.389E3,2.193E3,1.877E3,1.849E3,1.57E3,1.459E3,9.27E2,2.064E4,7.32E2,5.36E2,5.61E2,7.22E2,5.45E2,5.58E2,4.64E2,9.04E2,6.41E2,5.38E2,5.29E2,6.54E2,6.56E2,6.27E2,5.51E2,1.002E3,8.14E2,1.095E3,1.294E3,1.19E3,1.003E3,1.131E3,7.46E2,1.021E3,8.28E2,8.22E2,7.48E2,8.17E2,6.42E2,7.4E2,1.87E2,4.44E2,4.6E2,3.74E2,2.67E2,2.77E2,2.61E2,3.54E2,1.75E2,2.83E2,3.71E2,3.75E2,2.81E2,2.77E2,3.5E2,3.67E2,1.84E2,4.57E2,5.45E2,4.54E2,3.6E2,5.66E2,5.29E2,5.51E2,7.43E2,6.34E2,5.56E2],"tree_param":{"num_deleted":"0","num_feature":"19","num_nodes":"89","size_leaf_vector":"1"}},{"base_weights":[-2.0969291E-1,-1.4054427E2,2.9842462E2,-1.6896521E2,-9.075625E0,2.0596117E2,4.305254E2,-1.7412048E2,-1.20895966E2,-5.2303425E1,3.730018E1,1.4863034E2,2.6224948E2,3.7899545E2,5.039923E2,-8.749928E0,-1.5747607E2,-1.3478503E2,-1.0459461E2,-7.024793E1,-2.8404108E1,1.710855E1,6.026314E1,1.1511339E2,1.7749443E2,2.3477542E2,2.9153583E2,3.5282367E2,4.1361273E2,4.7998813E2,5.4806757E2,-8.137447E0,-7.594158E0,-7.097748E0,-6.354569E0,-5.61449E0,-4.8417816E0,-7.9194046E1,-5.9920704E1,-3.9585384E1,-1.89752E1,6.8773913E0,2.9091043E1,5.134644E1,7.074869E1,9.880911E1,1.3250592E2,1.6179765E2,1.9056444E2,2.2028964E2,2.4853087E2,1.3896136E1,1.5371447E1,1.6949202E1,1.8556974E1,2.0001755E1,2.1513899E1,2.3147701E1,2.4899378E1,2.6815847E1,2.9191284E1,-4.2450686E0,-3.7137535E0,-3.250492E0,-2.7471452E0,-2.2319026E0,-1.7277104E0,-1.2600181E0,-7.114486E-1,5.4866243E-2,6.488651E-1,1.2004439E0,1.7572237E0,2.2543602E0,2.8010201E0,3.284557E0,3.7668405E0,4.442111E0,5.349291E0,6.209059E0,7.0146956E0,7.7459793E0,8.47425E0,9.106937E0,9.857917E0,1.0697524E1,1.1385444E1,1.2037562E1,1.279423E1],"categories":[],"categories_nodes":[],"categories_segments":[],"categories_sizes":[],"default_left":[0,0,0,0,0,0,0,0,0,0,0,0,0,0,0,0,0,0,0,0,0,0,0,0,0,0,0,0,0,0,0,0,0,0,0,0,0,0,0,0,0,0,0,0,0,0,0,0,0,0,0,0,0,0,0,0,0,0,0,0,0,0,0,0,0,0,0,0,0,0,0,0,0,0,0,0,0,0,0,0,0,0,0,0,0,0,0,0,0],"id":11,"left_children":[1,3,5,7,9,11,13,15,17,19,21,23,25,27,29,-1,31,33,35,37,39,41,43,45,47,49,51,53,55,57,59,-1,-1,-1,-1,-1,-1,61,63,65,67,69,71,73,75,77,79,81,83,85,87,-1,-1,-1,-1,-1,-1,-1,-1,-1,-1,-1,-1,-1,-1,-1,-1,-1,-1,-1,-1,-1,-1,-1,-1,-1,-1,-1,-1,-1,-1,-1,-1,-1,-1,-1,-1,-1,-1],"loss_changes":[1.8360631E9,1.1136371E8,1.7098752E8,6.052032E6,1.0624983E7,2.6555232E7,2.1637568E7,2.95872E5,5.2408E5,1.174372E6,1.184547E6,3.931544E6,3.27632E6,2.928128E6,2.248576E6,0E0,8.28E3,5.2568E4,5.4684E4,1.399355E5,1.23442125E5,1.66774E5,1.08189E5,5.2371E5,4.19072E5,3.73664E5,3.49008E5,3.65712E5,1.57104E5,2.43168E5,3.5632E4,0E0,0E0,0E0,0E0,0E0,0E0,1.7164E4,1.494625E4,1.2134E4,1.8580422E4,2.5935566E4,1.8445562E4,1.6490125E4,7.74425E3,7.0443E4,4.177E4,2.6776E4,3.026E4,9.48E2,1.032E3,0E0,0E0,0E0,0E0,0E0,0E0,0E0,0E0,0E0,0E0,0E0,0E0,0E0,0E0,0E0,0E0,0E0,0E0,0E0,0E0,0E0,0E0,0E0,0E0,0E0,0E0,0E0,0E0,0E0,0E0,0E0,0E0,0E0,0E0,0E0,0E0,0E0,0E0],"parents":[2147483647,0,0,1,1,2,2,3,3,4,4,5,5,6,6,7,7,8,8,9,9,10,10,11,11,12,12,13,13,14,14,16,16,17,17,18,18,19,19,20,20,21,21,22,22,23,23,24,24,25,25,26,26,27,27,28,28,29,29,30,30,37,37,38,38,39,39,40,40,41,41,42,42,43,43,44,44,45,45,46,46,47,47,48,48,49,49,50,50],"right_children":[2,4,6,8,10,12,14,16,18,20,22,24,26,28,30,-1,32,34,36,38,40,42,44,46,48,50,52,54,56,58,60,-1,-1,-1,-1,-1,-1,62,64,66,68,70,72,74,76,78,80,82,84,86,88,-1,-1,-1,-1,-1,-1,-1,-1,-1,-1,-1,-1,-1,-1,-1,-1,-1,-1,-1,-1,-1,-1,-1,-1,-1,-1,-1,-1,-1,-1,-1,-1,-1,-1,-1,-1,-1,-1],"split_conditions":[4.5865713E3,1.533E3,8.938286E3,4.752857E2,3.0038572E3,6.840143E3,1.1169875E4,1.26E2,9.95E2,2.2462856E3,3.856125E3,5.787875E3,7.884E3,1.008225E4,1.250025E4,-8.749928E0,3.35625E2,7.144286E2,1.26825E3,1.8984286E3,2.609875E3,3.462875E3,4.2384287E3,5.226143E3,6.291143E3,7.3494287E3,8.416286E3,9.577875E3,1.064275E4,1.1833375E4,1.3235429E4,-8.137447E0,-7.594158E0,-7.097748E0,-6.354569E0,-5.61449E0,-4.8417816E0,1.717875E3,2.0487144E3,2.4257144E3,2.77025E3,3.2684285E3,3.676E3,4.0375E3,4.395375E3,4.8942856E3,5.51325E3,6.0687144E3,6.5464287E3,7.1257144E3,7.6274287E3,1.3896136E1,1.5371447E1,1.6949202E1,1.8556974E1,2.0001755E1,2.1513899E1,2.3147701E1,2.4899378E1,2.6815847E1,2.9191284E1,-4.2450686E0,-3.7137535E0,-3.250492E0,-2.7471452E0,-2.2319026E0,-1.7277104E0,-1.2600181E0,-7.114486E-1,5.4866243E-2,6.488651E-1,1.2004439E0,1.7572237E0,2.2543602E0,2.8010201E0,3.284557E0,3.7668405E0,4.442111E0,5.349291E0,6.209059E0,7.0146956E0,7.7459793E0,8.47425E0,9.106937E0,9.857917E0,1.0697524E1,1.1385444E1,1.2037562E1,1.279423E1],"split_indices":[0,0,0,0,0,0,0,0,0,0,0,0,0,0,0,0,0,0,0,0,0,0,0,0,0,0,0,0,0,0,0,0,0,0,0,0,0,0,0,0,0,0,0,0,0,0,0,0,0,0,0,0,0,0,0,0,0,0,0,0,0,0,0,0,0,0,0,0,0,0,0,0,0,0,0,0,0,0,0,0,0,0,0,0,0,0,0,0,0],"split_type":[0,0,0,0,0,0,0,0,0,0,0,0,0,0,0,0,0,0,0,0,0,0,0,0,0,0,0,0,0,0,0,0,0,0,0,0,0,0,0,0,0,0,0,0,0,0,0,0,0,0,0,0,0,0,0,0,0,0,0,0,0,0,0,0,0,0,0,0,0,0,0,0,0,0,0,0,0,0,0,0,0,0,0,0,0,0,0,0,0],"sum_hessian":[4.3809E4,2.9804E4,1.4005E4,2.4506E4,5.298E3,8.24E3,5.765E3,2.213E4,2.376E3,2.742E3,2.556E3,4.084E3,4.156E3,3.392E3,2.373E3,2.1012E4,1.118E3,1.279E3,1.097E3,1.565E3,1.177E3,1.361E3,1.195E3,1.892E3,2.192E3,2.149E3,2.007E3,1.938E3,1.454E3,1.544E3,8.29E2,5.61E2,5.57E2,6.53E2,6.26E2,5.44E2,5.53E2,8.35E2,7.3E2,5.37E2,6.4E2,7.35E2,6.26E2,6.49E2,5.46E2,9.8E2,9.12E2,1.002E3,1.19E3,1.055E3,1.094E3,1.091E3,9.16E2,1.115E3,8.23E2,8.15E2,6.39E2,8.07E2,7.37E2,6.36E2,1.93E2,3.79E2,4.56E2,3.55E2,3.75E2,2.64E2,2.73E2,2.75E2,3.65E2,3.78E2,3.57E2,3.43E2,2.83E2,2.82E2,3.67E2,2.67E2,2.79E2,4.47E2,5.33E2,4.49E2,4.63E2,5.4E2,4.62E2,5.35E2,6.55E2,5.85E2,4.7E2,5.48E2,5.46E2],"tree_param":{"num_deleted":"0","num_feature":"19","num_nodes":"89","size_leaf_vector":"1"}},{"base_weights":[1.877725E-1,-1.340333E2,2.8112567E2,-1.6075531E2,-1.1037627E1,1.861925E2,3.9886307E2,-1.6564516E2,-1.17599174E2,-5.2157528E1,3.2389503E1,1.3319331E2,2.3626964E2,3.434475E2,4.6793753E2,-8.316262E0,-1.5237189E2,-1.3142532E2,-1.0303067E2,-6.885145E1,-3.021237E1,1.1883207E1,5.2587902E1,1.0132388E2,1.5813454E2,2.102722E2,2.6203564E2,3.1692426E2,3.7318503E2,4.3608774E2,5.063648E2,-7.8096223E0,-7.3321033E0,-6.902045E0,-6.234383E0,-5.5041256E0,-4.7371073E0,-7.730136E1,-5.942661E1,-4.097699E1,-2.0983997E1,2.125375E0,2.1821524E1,4.300983E1,6.2735336E1,8.5537636E1,1.13611786E2,1.4363753E2,1.7115343E2,1.972778E2,1.1167107E1,1.2420144E1,1.3752833E1,1.5118288E1,1.654354E1,1.7929726E1,1.9340796E1,2.0891342E1,2.2588873E1,2.4366545E1,2.6516722E1,-4.138249E0,-3.6240067E0,-3.1317148E0,-2.681732E0,-2.271926E0,-1.8132275E0,-1.2580987E0,-7.645294E-1,-2.455199E-1,3.600572E-1,8.736453E-1,1.375944E0,1.8381008E0,2.3746388E0,2.9253192E0,3.423404E0,3.841481E0,4.555633E0,5.3107285E0,6.059006E0,6.8595347E0,7.5509615E0,8.225902E0,8.884784E0,9.542519E0,1.0224613E1],"categories":[],"categories_nodes":[],"categories_segments":[],"categories_sizes":[],"default_left":[0,0,0,0,0,0,0,0,0,0,0,0,0,0,0,0,0,0,0,0,0,0,0,0,0,0,0,0,0,0,0,0,0,0,0,0,0,0,0,0,0,0,0,0,0,0,0,0,0,0,0,0,0,0,0,0,0,0,0,0,0,0,0,0,0,0,0,0,0,0,0,0,0,0,0,0,0,0,0,0,0,0,0,0,0,0,0],"id":12,"left_children":[1,3,5,7,9,11,13,15,17,19,21,23,25,27,29,-1,31,33,35,37,39,41,43,45,47,49,51,53,55,57,59,-1,-1,-1,-1,-1,-1,61,63,65,67,69,71,73,75,77,79,81,83,85,-1,-1,-1,-1,-1,-1,-1,-1,-1,-1,-1,-1,-1,-1,-1,-1,-1,-1,-1,-1,-1,-1,-1,-1,-1,-1,-1,-1,-1,-1,-1,-1,-1,-1,-1,-1,-1],"loss_changes":[1.6612165E9,9.798106E7,1.5912243E8,5.1488E6,9.505288E6,2.0901024E7,2.4172544E7,1.73184E5,4.8922E5,9.995225E5,1.071724E6,3.03148E6,2.660464E6,2.666752E6,3.239168E6,0E0,8.26E2,3.9708E4,6.0879E4,1.190065E5,1.1665925E5,1.2466528E5,1.24041E5,3.17332E5,3.81008E5,2.9952E5,2.92384E5,2.80256E5,1.91232E5,2.56192E5,3.23264E5,0E0,0E0,0E0,0E0,0E0,0E0,1.54695E4,1.035175E4,9.8106875E3,1.4815094E4,2.3248133E4,1.530125E4,1.7131875E4,1.129175E4,2.9022E4,4.0034E4,2.7966E4,1.969E4,8.408E3,0E0,0E0,0E0,0E0,0E0,0E0,0E0,0E0,0E0,0E0,0E0,0E0,0E0,0E0,0E0,0E0,0E0,0E0,0E0,0E0,0E0,0E0,0E0,0E0,0E0,0E0,0E0,0E0,0E0,0E0,0E0,0E0,0E0,0E0,0E0,0E0,0E0],"parents":[2147483647,0,0,1,1,2,2,3,3,4,4,5,5,6,6,7,7,8,8,9,9,10,10,11,11,12,12,13,13,14,14,16,16,17,17,18,18,19,19,20,20,21,21,22,22,23,23,24,24,25,25,26,26,27,27,28,28,29,29,30,30,37,37,38,38,39,39,40,40,41,41,42,42,43,43,44,44,45,45,46,46,47,47,48,48,49,49],"right_children":[2,4,6,8,10,12,14,16,18,20,22,24,26,28,30,-1,32,34,36,38,40,42,44,46,48,50,52,54,56,58,60,-1,-1,-1,-1,-1,-1,62,64,66,68,70,72,74,76,78,80,82,84,86,-1,-1,-1,-1,-1,-1,-1,-1,-1,-1,-1,-1,-1,-1,-1,-1,-1,-1,-1,-1,-1,-1,-1,-1,-1,-1,-1,-1,-1,-1,-1,-1,-1,-1,-1,-1,-1],"split_conditions":[4.510125E3,1.4847142E3,8.624714E3,4.3057144E2,2.9248572E3,6.637857E3,1.0778E4,9.52E1,9.297143E2,2.202625E3,3.731E3,5.5737144E3,7.6274287E3,9.685E3,1.2049375E4,-8.316262E0,3.1E2,6.73E2,1.2185714E3,1.8604286E3,2.555625E3,3.3701428E3,4.142E3,4.9947144E3,6.1172856E3,7.1257144E3,8.102E3,9.141E3,1.0201143E4,1.1394875E4,1.27685E4,-7.8096223E0,-7.3321033E0,-6.902045E0,-6.234383E0,-5.5041256E0,-4.7371073E0,1.674375E3,2.0487144E3,2.372E3,2.77025E3,3.1701428E3,3.56225E3,3.915875E3,4.3415E3,4.709857E3,5.29075E3,5.8845E3,6.3804287E3,6.889E3,1.1167107E1,1.2420144E1,1.3752833E1,1.5118288E1,1.654354E1,1.7929726E1,1.9340796E1,2.0891342E1,2.2588873E1,2.4366545E1,2.6516722E1,-4.138249E0,-3.6240067E0,-3.1317148E0,-2.681732E0,-2.271926E0,-1.8132275E0,-1.2580987E0,-7.645294E-1,-2.455199E-1,3.600572E-1,8.736453E-1,1.375944E0,1.8381008E0,2.3746388E0,2.9253192E0,3.423404E0,3.841481E0,4.555633E0,5.3107285E0,6.059006E0,6.8595347E0,7.5509615E0,8.225902E0,8.884784E0,9.542519E0,1.0224613E1],"split_indices":[0,0,0,0,0,0,0,0,0,0,0,0,0,0,0,0,0,0,0,0,0,0,0,0,0,0,0,0,0,0,0,0,0,0,0,0,0,0,0,0,0,0,0,0,0,0,0,0,0,0,0,0,0,0,0,0,0,0,0,0,0,0,0,0,0,0,0,0,0,0,0,0,0,0,0,0,0,0,0,0,0,0,0,0,0,0,0],"split_type":[0,0,0,0,0,0,0,0,0,0,0,0,0,0,0,0,0,0,0,0,0,0,0,0,0,0,0,0,0,0,0,0,0,0,0,0,0,0,0,0,0,0,0,0,0,0,0,0,0,0,0,0,0,0,0,0,0,0,0,0,0,0,0,0,0,0,0,0,0,0,0,0,0,0,0,0,0,0,0,0,0,0,0,0,0,0,0],"sum_hessian":[4.4053E4,2.9811E4,1.4242E4,2.449E4,5.321E3,7.886E3,6.356E3,2.1995E4,2.495E3,2.733E3,2.588E3,3.833E3,4.053E3,3.53E3,2.826E3,2.0912E4,1.083E3,1.276E3,1.219E3,1.551E3,1.182E3,1.285E3,1.303E3,1.685E3,2.148E3,2.022E3,2.031E3,1.872E3,1.658E3,1.552E3,1.274E3,6.34E2,4.49E2,6.34E2,6.42E2,6.52E2,5.67E2,8.14E2,7.37E2,5.44E2,6.38E2,6.49E2,6.36E2,6.73E2,6.3E2,7.41E2,9.44E2,1.022E3,1.126E3,1.022E3,1E3,1.002E3,1.029E3,9.27E2,9.45E2,8.14E2,8.44E2,7.3E2,8.22E2,7.22E2,5.52E2,3.74E2,4.4E2,4.68E2,2.69E2,2.75E2,2.69E2,3.66E2,2.72E2,2.72E2,3.77E2,3.63E2,2.73E2,2.85E2,3.88E2,3.69E2,2.61E2,2.95E2,4.46E2,4.85E2,4.59E2,5.56E2,4.66E2,5.72E2,5.54E2,5.55E2,4.67E2],"tree_param":{"num_deleted":"0","num_feature":"19","num_nodes":"87","size_leaf_vector":"1"}},{"base_weights":[-3.1828117E-1,-1.2632053E2,2.70573E2,-1.520198E2,-4.436641E0,1.8822565E2,3.904313E2,-1.568564E2,-1.0390302E2,-4.360342E1,3.6497528E1,1.3776402E2,2.4033044E2,3.4498373E2,4.5710645E2,-1.5783316E2,-1.378624E2,-1.1580844E2,-8.876257E1,-6.0235157E1,-2.2955187E1,1.7125036E1,5.554036E1,1.0676518E2,1.6320023E2,2.177672E2,2.6800574E2,3.214264E2,3.7610666E2,4.3527618E2,4.949961E2,-7.9048476E0,-7.5553794E0,-7.0986123E0,-6.656011E0,-6.074016E0,-5.390614E0,-4.717588E0,-4.098467E0,-6.722475E1,-5.0949112E1,-3.1396858E1,-1.2823327E1,9.198058E0,2.756135E1,4.640275E1,6.483514E1,9.084312E1,1.2080474E2,1.502953E2,1.7711548E2,2.0462843E2,1.1536757E1,1.2828957E1,1.4058887E1,1.537679E1,1.682261E1,1.8198256E1,1.9578796E1,2.1090742E1,2.2591446E1,2.438018E1,2.7329636E1,-3.5425675E0,-3.1206741E0,-2.7239063E0,-2.2984474E0,-1.7932905E0,-1.2574848E0,-8.606834E-1,-4.160226E-1,1.9445364E-1,7.226151E-1,1.1587272E0,1.5931634E0,2.046285E0,2.522041E0,3.0305936E0,3.5177982E0,4.180137E0,4.8948016E0,5.606281E0,6.391109E0,7.116826E0,7.8612266E0,8.542249E0,9.166835E0,9.889762E0,1.0549011E1],"categories":[],"categories_nodes":[],"categories_segments":[],"categories_sizes":[],"default_left":[0,0,0,0,0,0,0,0,0,0,0,0,0,0,0,0,0,0,0,0,0,0,0,0,0,0,0,0,0,0,0,0,0,0,0,0,0,0,0,0,0,0,0,0,0,0,0,0,0,0,0,0,0,0,0,0,0,0,0,0,0,0,0,0,0,0,0,0,0,0,0,0,0,0,0,0,0,0,0,0,0,0,0,0,0,0,0,0,0],"id":13,"left_children":[1,3,5,7,9,11,13,15,17,19,21,23,25,27,29,31,33,35,37,39,41,43,45,47,49,51,53,55,57,59,61,-1,-1,-1,-1,-1,-1,-1,-1,63,65,67,69,71,73,75,77,79,81,83,85,87,-1,-1,-1,-1,-1,-1,-1,-1,-1,-1,-1,-1,-1,-1,-1,-1,-1,-1,-1,-1,-1,-1,-1,-1,-1,-1,-1,-1,-1,-1,-1,-1,-1,-1,-1,-1,-1],"loss_changes":[1.497684E9,9.380621E7,1.3741587E8,5.739584E6,8.3641935E6,2.1682208E7,1.7029696E7,3.95136E5,3.97454E5,9.141645E5,9.4013075E5,3.292664E6,2.478128E6,2.35504E6,1.683616E6,1.4016E4,2.676E3,4.4184E4,3.02345E4,9.23755E4,1.0146344E5,1.0448072E5,1.0621425E5,4.12632E5,3.87124E5,3.34952E5,2.01784E5,2.99136E5,1.29632E5,1.3584E5,5.0832E4,0E0,0E0,0E0,0E0,0E0,0E0,0E0,0E0,1.021725E4,8.7085E3,1.7217E4,1.0591422E4,2.0055875E4,9.5655E3,1.235575E4,1.054125E4,3.7367E4,4.6817E4,4.391E4,1.1704E4,7.012E3,0E0,0E0,0E0,0E0,0E0,0E0,0E0,0E0,0E0,0E0,0E0,0E0,0E0,0E0,0E0,0E0,0E0,0E0,0E0,0E0,0E0,0E0,0E0,0E0,0E0,0E0,0E0,0E0,0E0,0E0,0E0,0E0,0E0,0E0,0E0,0E0,0E0],"parents":[2147483647,0,0,1,1,2,2,3,3,4,4,5,5,6,6,7,7,8,8,9,9,10,10,11,11,12,12,13,13,14,14,15,15,16,16,17,17,18,18,19,19,20,20,21,21,22,22,23,23,24,24,25,25,26,26,27,27,28,28,29,29,30,30,39,39,40,40,41,41,42,42,43,43,44,44,45,45,46,46,47,47,48,48,49,49,50,50,51,51],"right_children":[2,4,6,8,10,12,14,16,18,20,22,24,26,28,30,32,34,36,38,40,42,44,46,48,50,52,54,56,58,60,62,-1,-1,-1,-1,-1,-1,-1,-1,64,66,68,70,72,74,76,78,80,82,84,86,88,-1,-1,-1,-1,-1,-1,-1,-1,-1,-1,-1,-1,-1,-1,-1,-1,-1,-1,-1,-1,-1,-1,-1,-1,-1,-1,-1,-1,-1,-1,-1,-1,-1,-1,-1,-1,-1],"split_conditions":[4.6494287E3,1.6224286E3,8.983625E3,5.94125E2,3.090875E3,6.937143E3,1.1251E4,2.52875E2,1.14375E3,2.3015E3,3.856125E3,5.834625E3,8.012625E3,1.014125E4,1.250025E4,3.675E1,4.037143E2,8.8325E2,1.4035E3,1.976625E3,2.72E3,3.5115715E3,4.2384287E3,5.226143E3,6.41975E3,7.474875E3,8.515E3,9.577875E3,1.0710143E4,1.1895857E4,1.349625E4,-7.9048476E0,-7.5553794E0,-7.0986123E0,-6.656011E0,-6.074016E0,-5.390614E0,-4.717588E0,-4.098467E0,1.823E3,2.1457144E3,2.555625E3,2.8695715E3,3.319875E3,3.676E3,4.0375E3,4.45225E3,4.9427144E3,5.51325E3,6.1172856E3,6.677375E3,7.223E3,1.1536757E1,1.2828957E1,1.4058887E1,1.537679E1,1.682261E1,1.8198256E1,1.9578796E1,2.1090742E1,2.2591446E1,2.438018E1,2.7329636E1,-3.5425675E0,-3.1206741E0,-2.7239063E0,-2.2984474E0,-1.7932905E0,-1.2574848E0,-8.606834E-1,-4.160226E-1,1.9445364E-1,7.226151E-1,1.1587272E0,1.5931634E0,2.046285E0,2.522041E0,3.0305936E0,3.5177982E0,4.180137E0,4.8948016E0,5.606281E0,6.391109E0,7.116826E0,7.8612266E0,8.542249E0,9.166835E0,9.889762E0,1.0549011E1],"split_indices":[0,0,0,0,0,0,0,0,0,0,0,0,0,0,0,0,0,0,0,0,0,0,0,0,0,0,0,0,0,0,0,0,0,0,0,0,0,0,0,0,0,0,0,0,0,0,0,0,0,0,0,0,0,0,0,0,0,0,0,0,0,0,0,0,0,0,0,0,0,0,0,0,0,0,0,0,0,0,0,0,0,0,0,0,0,0,0,0,0],"split_type":[0,0,0,0,0,0,0,0,0,0,0,0,0,0,0,0,0,0,0,0,0,0,0,0,0,0,0,0,0,0,0,0,0,0,0,0,0,0,0,0,0,0,0,0,0,0,0,0,0,0,0,0,0,0,0,0,0,0,0,0,0,0,0,0,0,0,0,0,0,0,0,0,0,0,0,0,0,0,0,0,0,0,0,0,0,0,0,0,0],"sum_hessian":[4.3876E4,2.9947E4,1.3929E4,2.4732E4,5.215E3,8.258E3,5.671E3,2.2471E4,2.261E3,2.665E3,2.55E3,4.197E3,4.061E3,3.376E3,2.295E3,2.1365E4,1.106E3,1.262E3,9.99E2,1.475E3,1.19E3,1.265E3,1.285E3,1.894E3,2.303E3,2.242E3,1.819E3,1.928E3,1.448E3,1.464E3,8.31E2,2.0537E4,8.28E2,5.77E2,5.29E2,7.3E2,5.32E2,5.41E2,4.58E2,8.38E2,6.37E2,6.48E2,5.42E2,7.2E2,5.45E2,6.51E2,6.34E2,8.91E2,1.003E3,1.201E3,1.102E3,1.122E3,1.12E3,9.85E2,8.34E2,1.013E3,9.15E2,8.25E2,6.23E2,8.22E2,6.42E2,7.36E2,9.5E1,4.7E2,3.68E2,3.67E2,2.7E2,3.75E2,2.73E2,2.73E2,2.69E2,3.59E2,3.61E2,2.73E2,2.72E2,2.81E2,3.7E2,3.66E2,2.68E2,4.46E2,4.45E2,4.56E2,5.47E2,5.69E2,6.32E2,5.63E2,5.39E2,5.56E2,5.66E2],"tree_param":{"num_deleted":"0","num_feature":"19","num_nodes":"89","size_leaf_vector":"1"}},{"base_weights":[-4.6113035E-1,-1.1969856E2,2.572434E2,-1.44409E2,-3.8784986E0,1.7857242E2,3.7158832E2,-1.4902658E2,-9.885243E1,-4.159619E1,3.474867E1,1.29571E2,2.2749501E2,3.282547E2,4.3430563E2,-1.4993619E2,-1.308201E2,-1.1005018E2,-8.433088E1,-5.6226997E1,-2.0627005E1,1.6267794E1,5.2922974E1,1.0002774E2,1.529721E2,2.036507E2,2.5213287E2,3.0407703E2,3.559881E2,4.1339166E2,4.6958383E2,-7.509636E0,-7.1770873E0,-6.7901244E0,-6.3564157E0,-5.811874E0,-5.174218E0,-4.48621E0,-3.8940887E0,-6.386143E1,-4.724827E1,-2.8421053E1,-1.2208167E1,7.577659E0,2.4669943E1,4.403642E1,6.170257E1,8.640099E1,1.1372441E2,1.397879E2,1.654657E2,9.499249E0,2.1400742E2,1.2028453E1,1.329203E1,1.4558542E1,1.5853847E1,1.7138044E1,1.8509104E1,2.0023031E1,2.1462973E1,2.2988306E1,2.5054554E1,-3.3650854E0,-2.9629972E0,-2.5875564E0,-2.1257372E0,-1.623688E0,-1.2024295E0,-8.234491E-1,-3.9427194E-1,1.2518346E-1,5.6605977E-1,9.67443E-1,1.4458766E0,1.9392251E0,2.3931015E0,2.879583E0,3.3478444E0,3.973137E0,4.646612E0,5.253921E0,5.9671335E0,6.6457863E0,7.3164344E0,7.914045E0,8.555766E0,1.0377714E1,1.1068938E1],"categories":[],"categories_nodes":[],"categories_segments":[],"categories_sizes":[],"default_left":[0,0,0,0,0,0,0,0,0,0,0,0,0,0,0,0,0,0,0,0,0,0,0,0,0,0,0,0,0,0,0,0,0,0,0,0,0,0,0,0,0,0,0,0,0,0,0,0,0,0,0,0,0,0,0,0,0,0,0,0,0,0,0,0,0,0,0,0,0,0,0,0,0,0,0,0,0,0,0,0,0,0,0,0,0,0,0,0,0],"id":14,"left_children":[1,3,5,7,9,11,13,15,17,19,21,23,25,27,29,31,33,35,37,39,41,43,45,47,49,51,53,55,57,59,61,-1,-1,-1,-1,-1,-1,-1,-1,63,65,67,69,71,73,75,77,79,81,83,85,-1,87,-1,-1,-1,-1,-1,-1,-1,-1,-1,-1,-1,-1,-1,-1,-1,-1,-1,-1,-1,-1,-1,-1,-1,-1,-1,-1,-1,-1,-1,-1,-1,-1,-1,-1,-1,-1],"loss_changes":[1.3534468E9,8.618176E7,1.252697E8,5.205984E6,7.7173335E6,1.9762416E7,1.528896E7,3.53536E5,3.62606E5,8.21054E5,8.78129E5,2.83788E6,2.374912E6,2.146048E6,1.51536E6,1.3664E4,2.602E3,4.0297E4,2.7794E4,1.051505E5,7.2028375E4,9.466056E4,1.00192E5,3.31166E5,3.55884E5,2.57128E5,2.57352E5,2.10176E5,1.66E5,1.28288E5,3.4096E4,0E0,0E0,0E0,0E0,0E0,0E0,0E0,0E0,9.4675E3,1.3338E4,9.355094E3,9.668703E3,1.2128238E4,1.43576875E4,1.138425E4,1.042125E4,3.43055E4,3.1566E4,3.1166E4,2.065E4,0E0,1.0616E4,0E0,0E0,0E0,0E0,0E0,0E0,0E0,0E0,0E0,0E0,0E0,0E0,0E0,0E0,0E0,0E0,0E0,0E0,0E0,0E0,0E0,0E0,0E0,0E0,0E0,0E0,0E0,0E0,0E0,0E0,0E0,0E0,0E0,0E0,0E0,0E0],"parents":[2147483647,0,0,1,1,2,2,3,3,4,4,5,5,6,6,7,7,8,8,9,9,10,10,11,11,12,12,13,13,14,14,15,15,16,16,17,17,18,18,19,19,20,20,21,21,22,22,23,23,24,24,25,25,26,26,27,27,28,28,29,29,30,30,39,39,40,40,41,41,42,42,43,43,44,44,45,45,46,46,47,47,48,48,49,49,50,50,52,52],"right_children":[2,4,6,8,10,12,14,16,18,20,22,24,26,28,30,32,34,36,38,40,42,44,46,48,50,52,54,56,58,60,62,-1,-1,-1,-1,-1,-1,-1,-1,64,66,68,70,72,74,76,78,80,82,84,86,-1,88,-1,-1,-1,-1,-1,-1,-1,-1,-1,-1,-1,-1,-1,-1,-1,-1,-1,-1,-1,-1,-1,-1,-1,-1,-1,-1,-1,-1,-1,-1,-1,-1,-1,-1,-1,-1],"split_conditions":[4.6494287E3,1.6224286E3,8.983625E3,5.94125E2,3.090875E3,6.889E3,1.1251E4,2.52875E2,1.14375E3,2.372E3,3.856125E3,5.787875E3,7.924857E3,1.008225E4,1.250025E4,3.675E1,3.792857E2,8.398571E2,1.4035E3,1.976625E3,2.72E3,3.462875E3,4.2384287E3,5.226143E3,6.3432856E3,7.3494287E3,8.470375E3,9.517143E3,1.064275E4,1.1895857E4,1.3235429E4,-7.509636E0,-7.1770873E0,-6.7901244E0,-6.3564157E0,-5.811874E0,-5.174218E0,-4.48621E0,-3.8940887E0,1.823E3,2.1457144E3,2.555625E3,2.8695715E3,3.2684285E3,3.613875E3,4.0375E3,4.45225E3,4.9427144E3,5.4635713E3,6.0687144E3,6.588857E3,9.499249E0,7.670375E3,1.2028453E1,1.329203E1,1.4558542E1,1.5853847E1,1.7138044E1,1.8509104E1,2.0023031E1,2.1462973E1,2.2988306E1,2.5054554E1,-3.3650854E0,-2.9629972E0,-2.5875564E0,-2.1257372E0,-1.623688E0,-1.2024295E0,-8.234491E-1,-3.9427194E-1,1.2518346E-1,5.6605977E-1,9.67443E-1,1.4458766E0,1.9392251E0,2.3931015E0,2.879583E0,3.3478444E0,3.973137E0,4.646612E0,5.253921E0,5.9671335E0,6.6457863E0,7.3164344E0,7.914045E0,8.555766E0,1.0377714E1,1.1068938E1],"split_indices":[0,0,0,0,0,0,0,0,0,0,0,0,0,0,0,0,0,0,0,0,0,0,0,0,0,0,0,0,0,0,0,0,0,0,0,0,0,0,0,0,0,0,0,0,0,0,0,0,0,0,0,0,0,0,0,0,0,0,0,0,0,0,0,0,0,0,0,0,0,0,0,0,0,0,0,0,0,0,0,0,0,0,0,0,0,0,0,0,0],"split_type":[0,0,0,0,0,0,0,0,0,0,0,0,0,0,0,0,0,0,0,0,0,0,0,0,0,0,0,0,0,0,0,0,0,0,0,0,0,0,0,0,0,0,0,0,0,0,0,0,0,0,0,0,0,0,0,0,0,0,0,0,0,0,0,0,0,0,0,0,0,0,0,0,0,0,0,0,0,0,0,0,0,0,0,0,0,0,0,0,0],"sum_hessian":[4.4044E4,3.0112E4,1.3932E4,2.4817E4,5.295E3,8.255E3,5.677E3,2.2531E4,2.286E3,2.679E3,2.616E3,4.126E3,4.129E3,3.361E3,2.316E3,2.1452E4,1.079E3,1.287E3,9.99E2,1.577E3,1.102E3,1.298E3,1.318E3,1.826E3,2.3E3,2.103E3,2.026E3,1.802E3,1.559E3,1.462E3,8.54E2,2.0603E4,8.49E2,4.44E2,6.35E2,6.54E2,6.33E2,5.37E2,4.62E2,8.49E2,7.28E2,5.71E2,5.31E2,6.39E2,6.59E2,6.58E2,6.6E2,9.19E2,9.07E2,1.125E3,1.175E3,9.15E2,1.188E3,1.109E3,9.17E2,9.16E2,8.86E2,8.2E2,7.39E2,8.2E2,6.42E2,6.63E2,1.91E2,4.78E2,3.71E2,3.68E2,3.6E2,2.93E2,2.78E2,2.66E2,2.65E2,2.72E2,3.67E2,2.95E2,3.64E2,2.82E2,3.76E2,3.77E2,2.83E2,4.52E2,4.67E2,3.65E2,5.42E2,5.59E2,5.66E2,5.3E2,6.45E2,6.49E2,5.39E2],"tree_param":{"num_deleted":"0","num_feature":"19","num_nodes":"89","size_leaf_vector":"1"}},{"base_weights":[4.1157734E-1,-1.1355221E2,2.4424576E2,-1.3707372E2,-3.609497E0,1.711149E2,3.5477606E2,-1.4144536E2,-9.2980484E1,-3.928971E1,3.301537E1,1.24389E2,2.1830092E2,3.1365533E2,4.1271423E2,-1.4240623E2,-6.150475E0,-1.0350308E2,-8.026177E1,-5.4404705E1,-2.0502134E1,1.5300628E1,5.0289406E1,9.63688E1,1.4733119E2,1.9645691E2,2.4274153E2,2.9296747E2,3.4113318E2,3.9313113E2,4.466099E2,-7.1326065E0,-6.760012E0,-5.4348826E0,-4.864343E0,-4.257675E0,-3.7014787E0,-6.069468E1,-4.592264E1,-2.8217709E1,-1.1449512E1,8.2472315E0,2.4927294E1,4.3354927E1,5.9931454E1,8.3315285E1,1.1057493E2,1.3498763E2,1.5897244E2,1.856612E2,1.0461398E1,1.1579889E1,1.2732088E1,1.4020621E1,1.5307907E1,1.6504889E1,1.7669811E1,1.8857672E1,2.0221788E1,2.1970495E1,2.4803116E1,-3.2434406E0,-2.8619707E0,-2.454668E0,-2.0707147E0,-1.6850551E0,-1.2051505E0,-7.2032183E-1,-2.9593304E-1,1.7711656E-1,6.4462507E-1,1.0402516E0,1.4405804E0,1.9186852E0,2.3957694E0,2.801711E0,3.1826315E0,3.8365948E0,4.5523353E0,5.2000513E0,5.8356085E0,6.480747E0,7.117396E0,7.615632E0,8.228801E0,8.980053E0,9.621497E0],"categories":[],"categories_nodes":[],"categories_segments":[],"categories_sizes":[],"default_left":[0,0,0,0,0,0,0,0,0,0,0,0,0,0,0,0,0,0,0,0,0,0,0,0,0,0,0,0,0,0,0,0,0,0,0,0,0,0,0,0,0,0,0,0,0,0,0,0,0,0,0,0,0,0,0,0,0,0,0,0,0,0,0,0,0,0,0,0,0,0,0,0,0,0,0,0,0,0,0,0,0,0,0,0,0,0,0],"id":15,"left_children":[1,3,5,7,9,11,13,15,17,19,21,23,25,27,29,31,-1,33,35,37,39,41,43,45,47,49,51,53,55,57,59,-1,-1,-1,-1,-1,-1,61,63,65,67,69,71,73,75,77,79,81,83,85,-1,-1,-1,-1,-1,-1,-1,-1,-1,-1,-1,-1,-1,-1,-1,-1,-1,-1,-1,-1,-1,-1,-1,-1,-1,-1,-1,-1,-1,-1,-1,-1,-1,-1,-1,-1,-1],"loss_changes":[1.2232394E9,7.757744E7,1.1327347E8,4.750368E6,6.9115665E6,1.8581424E7,1.3169472E7,3.80736E5,2.90408E5,7.59651E5,7.9790375E5,2.713392E6,2.193552E6,1.758336E6,1.360448E6,1.856E4,0E0,2.8756E4,2.46395E4,7.6387E4,8.3213E4,8.738628E4,8.572725E4,3.45536E5,3.13496E5,2.67504E5,2.032E5,2.24176E5,7.2544E4,1.13872E5,8.1104E4,0E0,0E0,0E0,0E0,0E0,0E0,8.53175E3,7.05825E3,1.37405E4,8.942305E3,1.6258551E4,8.12725E3,1.56985E4,4.4095E3,4.39635E4,2.4696E4,2.6552E4,1.949E4,1.5196E4,0E0,0E0,0E0,0E0,0E0,0E0,0E0,0E0,0E0,0E0,0E0,0E0,0E0,0E0,0E0,0E0,0E0,0E0,0E0,0E0,0E0,0E0,0E0,0E0,0E0,0E0,0E0,0E0,0E0,0E0,0E0,0E0,0E0,0E0,0E0,0E0,0E0],"parents":[2147483647,0,0,1,1,2,2,3,3,4,4,5,5,6,6,7,7,8,8,9,9,10,10,11,11,12,12,13,13,14,14,15,15,17,17,18,18,19,19,20,20,21,21,22,22,23,23,24,24,25,25,26,26,27,27,28,28,29,29,30,30,37,37,38,38,39,39,40,40,41,41,42,42,43,43,44,44,45,45,46,46,47,47,48,48,49,49],"right_children":[2,4,6,8,10,12,14,16,18,20,22,24,26,28,30,32,-1,34,36,38,40,42,44,46,48,50,52,54,56,58,60,-1,-1,-1,-1,-1,-1,62,64,66,68,70,72,74,76,78,80,82,84,86,-1,-1,-1,-1,-1,-1,-1,-1,-1,-1,-1,-1,-1,-1,-1,-1,-1,-1,-1,-1,-1,-1,-1,-1,-1,-1,-1,-1,-1,-1,-1,-1,-1,-1,-1,-1,-1],"split_conditions":[4.6494287E3,1.6224286E3,9.038714E3,6.29E2,3.090875E3,6.937143E3,1.1251E4,2.8725E2,1.14375E3,2.3015E3,3.856125E3,5.834625E3,8.012625E3,1.0201143E4,1.250025E4,6.8875E1,-6.150475E0,8.8325E2,1.4035E3,1.976625E3,2.72E3,3.5115715E3,4.28425E3,5.29075E3,6.3804287E3,7.5254287E3,8.515E3,9.62425E3,1.0710143E4,1.176525E4,1.349625E4,-7.1326065E0,-6.760012E0,-5.4348826E0,-4.864343E0,-4.257675E0,-3.7014787E0,1.792375E3,2.1457144E3,2.483E3,2.9248572E3,3.319875E3,3.676E3,4.0922856E3,4.45225E3,4.9947144E3,5.5737144E3,6.17025E3,6.637857E3,7.2705713E3,1.0461398E1,1.1579889E1,1.2732088E1,1.4020621E1,1.5307907E1,1.6504889E1,1.7669811E1,1.8857672E1,2.0221788E1,2.1970495E1,2.4803116E1,-3.2434406E0,-2.8619707E0,-2.454668E0,-2.0707147E0,-1.6850551E0,-1.2051505E0,-7.2032183E-1,-2.9593304E-1,1.7711656E-1,6.4462507E-1,1.0402516E0,1.4405804E0,1.9186852E0,2.3957694E0,2.801711E0,3.1826315E0,3.8365948E0,4.5523353E0,5.2000513E0,5.8356085E0,6.480747E0,7.117396E0,7.615632E0,8.228801E0,8.980053E0,9.621497E0],"split_indices":[0,0,0,0,0,0,0,0,0,0,0,0,0,0,0,0,0,0,0,0,0,0,0,0,0,0,0,0,0,0,0,0,0,0,0,0,0,0,0,0,0,0,0,0,0,0,0,0,0,0,0,0,0,0,0,0,0,0,0,0,0,0,0,0,0,0,0,0,0,0,0,0,0,0,0,0,0,0,0,0,0,0,0,0,0,0,0],"split_type":[0,0,0,0,0,0,0,0,0,0,0,0,0,0,0,0,0,0,0,0,0,0,0,0,0,0,0,0,0,0,0,0,0,0,0,0,0,0,0,0,0,0,0,0,0,0,0,0,0,0,0,0,0,0,0,0,0,0,0,0,0,0,0,0,0,0,0,0,0,0,0,0,0,0,0,0,0,0,0,0,0,0,0,0,0,0,0],"sum_hessian":[4.4018E4,2.9998E4,1.402E4,2.4711E4,5.287E3,8.439E3,5.581E3,2.248E4,2.231E3,2.678E3,2.609E3,4.242E3,4.197E3,3.268E3,2.313E3,2.136E4,1.12E3,1.217E3,1.014E3,1.483E3,1.195E3,1.289E3,1.32E3,1.912E3,2.33E3,2.221E3,1.976E3,1.871E3,1.397E3,1.474E3,8.39E2,2.0637E4,7.23E2,6.54E2,5.63E2,5.61E2,4.53E2,8.48E2,6.35E2,6.44E2,5.51E2,7.45E2,5.44E2,7.71E2,5.49E2,1E3,9.12E2,1.137E3,1.193E3,1.212E3,1.009E3,1.031E3,9.45E2,9.7E2,9.01E2,7.5E2,6.47E2,6.25E2,8.49E2,7.41E2,9.8E1,3.76E2,4.72E2,3.67E2,2.68E2,2.73E2,3.71E2,3.58E2,1.93E2,3.71E2,3.74E2,2.67E2,2.77E2,3.73E2,3.98E2,2.76E2,2.73E2,5.46E2,4.54E2,4.49E2,4.63E2,6.68E2,4.69E2,5.58E2,6.35E2,6.54E2,5.58E2],"tree_param":{"num_deleted":"0","num_feature":"19","num_nodes":"87","size_leaf_vector":"1"}},{"base_weights":[-2.4467187E-2,-1.079686E2,2.323861E2,-1.3027864E2,-3.967836E0,1.6129807E2,3.3488437E2,-1.3438054E2,-8.82355E1,-3.7398514E1,3.1235453E1,1.1803141E2,2.0627045E2,2.9468127E2,3.90156E2,-1.3529037E2,-1.16909996E2,-9.9189575E1,-7.731056E1,-5.1565914E1,-1.9876497E1,1.47984295E1,4.758496E1,9.2572845E1,1.4090457E2,1.8667181E2,2.2957884E2,2.7225504E2,3.1729672E2,3.6974637E2,4.2163824E2,-6.777542E0,-6.4608216E0,-6.0222955E0,-5.6550355E0,-5.2416477E0,-4.749475E0,-4.138589E0,-3.5721989E0,-5.7527332E1,-4.3614452E1,-2.8167385E1,-1.2405707E1,7.7773147E0,2.3778166E1,3.967983E1,5.5650673E1,8.0118355E1,1.0720403E2,1.3005386E2,1.5173572E2,1.763126E2,9.941822E0,1.1048352E1,1.2113295E1,1.2924937E1,1.4029729E1,1.513837E1,1.6430525E1,1.7827715E1,1.9120838E1,2.0493256E1,2.2332932E1,-3.0377586E0,-2.6686966E0,-2.3341215E0,-1.9715239E0,-1.6048994E0,-1.2137333E0,-7.9927796E-1,-3.6195153E-1,1.7464185E-1,6.110236E-1,9.9410295E-1,1.3644952E0,1.7464173E0,2.163068E0,2.541986E0,2.960734E0,3.637743E0,4.361991E0,5.062628E0,5.6447725E0,6.206954E0,6.792535E0,7.3198504E0,7.854507E0,8.480281E0,9.085725E0],"categories":[],"categories_nodes":[],"categories_segments":[],"categories_sizes":[],"default_left":[0,0,0,0,0,0,0,0,0,0,0,0,0,0,0,0,0,0,0,0,0,0,0,0,0,0,0,0,0,0,0,0,0,0,0,0,0,0,0,0,0,0,0,0,0,0,0,0,0,0,0,0,0,0,0,0,0,0,0,0,0,0,0,0,0,0,0,0,0,0,0,0,0,0,0,0,0,0,0,0,0,0,0,0,0,0,0,0,0],"id":16,"left_children":[1,3,5,7,9,11,13,15,17,19,21,23,25,27,29,31,33,35,37,39,41,43,45,47,49,51,53,55,57,59,61,-1,-1,-1,-1,-1,-1,-1,-1,63,65,67,69,71,73,75,77,79,81,83,85,87,-1,-1,-1,-1,-1,-1,-1,-1,-1,-1,-1,-1,-1,-1,-1,-1,-1,-1,-1,-1,-1,-1,-1,-1,-1,-1,-1,-1,-1,-1,-1,-1,-1,-1,-1,-1,-1],"loss_changes":[1.1038687E9,6.971402E7,1.0162778E8,4.254592E6,6.2479935E6,1.6012976E7,1.258208E7,3.42432E5,2.5585E5,6.7493675E5,6.942505E5,2.43444E6,1.802672E6,1.593376E6,1.388096E6,1.632E4,1.503E3,1.6021E4,2.9553E4,6.883075E4,7.515475E4,8.120972E4,8.042525E4,3.54402E5,2.40232E5,2.42176E5,1.47616E5,1.19056E5,1.70592E5,1.08704E5,9.3248E4,0E0,0E0,0E0,0E0,0E0,0E0,0E0,0E0,8.2465E3,6.49E3,8.049375E3,1.1777172E4,1.3777891E4,7.2015E3,9.6865625E3,7.946E3,5.02865E4,1.9495E4,2.1262E4,8.474E3,1.2544E4,0E0,0E0,0E0,0E0,0E0,0E0,0E0,0E0,0E0,0E0,0E0,0E0,0E0,0E0,0E0,0E0,0E0,0E0,0E0,0E0,0E0,0E0,0E0,0E0,0E0,0E0,0E0,0E0,0E0,0E0,0E0,0E0,0E0,0E0,0E0,0E0,0E0],"parents":[2147483647,0,0,1,1,2,2,3,3,4,4,5,5,6,6,7,7,8,8,9,9,10,10,11,11,12,12,13,13,14,14,15,15,16,16,17,17,18,18,19,19,20,20,21,21,22,22,23,23,24,24,25,25,26,26,27,27,28,28,29,29,30,30,39,39,40,40,41,41,42,42,43,43,44,44,45,45,46,46,47,47,48,48,49,49,50,50,51,51],"right_children":[2,4,6,8,10,12,14,16,18,20,22,24,26,28,30,32,34,36,38,40,42,44,46,48,50,52,54,56,58,60,62,-1,-1,-1,-1,-1,-1,-1,-1,64,66,68,70,72,74,76,78,80,82,84,86,88,-1,-1,-1,-1,-1,-1,-1,-1,-1,-1,-1,-1,-1,-1,-1,-1,-1,-1,-1,-1,-1,-1,-1,-1,-1,-1,-1,-1,-1,-1,-1,-1,-1,-1,-1,-1,-1],"split_conditions":[4.6494287E3,1.6224286E3,8.983625E3,6.29E2,3.090875E3,6.937143E3,1.1169875E4,2.8725E2,1.0932858E3,2.3015E3,3.856125E3,5.8845E3,8.012625E3,9.961286E3,1.2420429E4,3.675E1,4.3057144E2,8.015714E2,1.354E3,1.976625E3,2.666E3,3.5115715E3,4.2384287E3,5.3432856E3,6.41975E3,7.5254287E3,8.57475E3,9.364286E3,1.0453143E4,1.176525E4,1.3095E4,-6.777542E0,-6.4608216E0,-6.0222955E0,-5.6550355E0,-5.2416477E0,-4.749475E0,-4.138589E0,-3.5721989E0,1.823E3,2.1457144E3,2.483E3,2.8695715E3,3.319875E3,3.676E3,4.0375E3,4.395375E3,4.9947144E3,5.63575E3,6.17025E3,6.677375E3,7.223E3,9.941822E0,1.1048352E1,1.2113295E1,1.2924937E1,1.4029729E1,1.513837E1,1.6430525E1,1.7827715E1,1.9120838E1,2.0493256E1,2.2332932E1,-3.0377586E0,-2.6686966E0,-2.3341215E0,-1.9715239E0,-1.6048994E0,-1.2137333E0,-7.9927796E-1,-3.6195153E-1,1.7464185E-1,6.110236E-1,9.9410295E-1,1.3644952E0,1.7464173E0,2.163068E0,2.541986E0,2.960734E0,3.637743E0,4.361991E0,5.062628E0,5.6447725E0,6.206954E0,6.792535E0,7.3198504E0,7.854507E0,8.480281E0,9.085725E0],"split_indices":[0,0,0,0,0,0,0,0,0,0,0,0,0,0,0,0,0,0,0,0,0,0,0,0,0,0,0,0,0,0,0,0,0,0,0,0,0,0,0,0,0,0,0,0,0,0,0,0,0,0,0,0,0,0,0,0,0,0,0,0,0,0,0,0,0,0,0,0,0,0,0,0,0,0,0,0,0,0,0,0,0,0,0,0,0,0,0,0,0],"split_type":[0,0,0,0,0,0,0,0,0,0,0,0,0,0,0,0,0,0,0,0,0,0,0,0,0,0,0,0,0,0,0,0,0,0,0,0,0,0,0,0,0,0,0,0,0,0,0,0,0,0,0,0,0,0,0,0,0,0,0,0,0,0,0,0,0,0,0,0,0,0,0,0,0,0,0,0,0,0,0,0,0,0,0,0,0,0,0,0,0],"sum_hessian":[4.3999E4,3.0045E4,1.3954E4,2.4738E4,5.307E3,8.241E3,5.713E3,2.2537E4,2.201E3,2.722E3,2.585E3,4.202E3,4.039E3,3.311E3,2.402E3,2.1415E4,1.122E3,1.095E3,1.106E3,1.504E3,1.218E3,1.29E3,1.295E3,1.991E3,2.211E3,2.199E3,1.84E3,1.669E3,1.642E3,1.465E3,9.37E2,2.0514E4,9.01E2,5.66E2,5.56E2,4.57E2,6.38E2,5.66E2,5.4E2,8.56E2,6.48E2,5.76E2,6.42E2,7.25E2,5.65E2,6.57E2,6.38E2,1.079E3,9.12E2,1.111E3,1.1E3,1.196E3,1.003E3,1.107E3,7.33E2,6.42E2,1.027E3,7.31E2,9.11E2,7.32E2,7.33E2,6.49E2,2.88E2,4.74E2,3.82E2,3.68E2,2.8E2,2.83E2,2.93E2,3.78E2,2.64E2,3.7E2,3.55E2,2.71E2,2.94E2,2.87E2,3.7E2,2.78E2,3.6E2,5.36E2,5.43E2,4.55E2,4.57E2,5.61E2,5.5E2,5.65E2,5.35E2,5.48E2,6.48E2],"tree_param":{"num_deleted":"0","num_feature":"19","num_nodes":"89","size_leaf_vector":"1"}},{"base_weights":[3.7699816E-1,-1.0381666E2,2.183112E2,-1.2448504E2,-8.690511E0,1.4543135E2,3.101659E2,-1.280869E2,-9.061877E1,-4.0064392E1,2.513517E1,1.047354E2,1.8576291E2,2.6812976E2,3.6317148E2,-6.4351525E0,-1.1725405E2,-1.0058517E2,-7.887377E1,-5.3246204E1,-2.3179884E1,9.305298E0,4.0883442E1,7.955566E1,1.2524866E2,1.6652663E2,2.0559387E2,2.4695384E2,2.9123734E2,3.3879483E2,3.91879E2,-6.0247474E0,-5.610684E0,-5.2531786E0,-4.7134852E0,-4.2207265E0,-3.6609185E0,-5.9635017E1,-4.591776E1,-3.1559696E1,-1.6279587E1,1.3940926E0,1.6957571E1,3.3225243E1,4.8537575E1,6.890747E1,9.1585E1,1.1411627E2,1.3591425E2,7.7759566E0,8.764401E0,9.787014E0,1.082059E1,1.1781721E1,1.2923851E1,1.4054654E1,1.5181841E1,1.6304197E1,1.7551167E1,1.894808E1,2.0728413E1,-3.149272E0,-2.760642E0,-2.4262967E0,-2.0796597E0,-1.7662544E0,-1.3968045E0,-9.8033714E-1,-5.906801E-1,-2.0271619E-1,2.8310928E-1,6.748669E-1,1.0694189E0,1.4731593E0,1.8976746E0,2.2621841E0,2.6569853E0,3.02725E0,3.7025628E0,4.33227E0,4.875398E0,5.407265E0,5.989872E0,6.531856E0,7.050074E0],"categories":[],"categories_nodes":[],"categories_segments":[],"categories_sizes":[],"default_left":[0,0,0,0,0,0,0,0,0,0,0,0,0,0,0,0,0,0,0,0,0,0,0,0,0,0,0,0,0,0,0,0,0,0,0,0,0,0,0,0,0,0,0,0,0,0,0,0,0,0,0,0,0,0,0,0,0,0,0,0,0,0,0,0,0,0,0,0,0,0,0,0,0,0,0,0,0,0,0,0,0,0,0,0,0],"id":17,"left_children":[1,3,5,7,9,11,13,15,17,19,21,23,25,27,29,-1,31,33,35,37,39,41,43,45,47,49,51,53,55,57,59,-1,-1,-1,-1,-1,-1,61,63,65,67,69,71,73,75,77,79,81,83,-1,-1,-1,-1,-1,-1,-1,-1,-1,-1,-1,-1,-1,-1,-1,-1,-1,-1,-1,-1,-1,-1,-1,-1,-1,-1,-1,-1,-1,-1,-1,-1,-1,-1,-1,-1],"loss_changes":[9.9603565E8,5.834499E7,9.49344E7,2.962176E6,5.623472E6,1.29684E7,1.3886528E7,1.31968E5,2.66796E5,6.10606E5,6.353171E5,2.025636E6,1.48136E6,1.642672E6,1.807744E6,0E0,6.032E3,2.5901E4,2.7724E4,6.9505E4,6.927881E4,7.704213E4,7.329975E4,2.20665E5,2.4214E5,1.6774E5,1.65712E5,1.78448E5,1.24688E5,1.19776E5,2.1424E5,0E0,0E0,0E0,0E0,0E0,0E0,8.6865E3,6.136625E3,6.435625E3,9.634766E3,1.4603432E4,9.630875E3,1.0301625E4,7.251875E3,3.61225E4,1.58055E4,2.3274E4,1.1192E4,0E0,0E0,0E0,0E0,0E0,0E0,0E0,0E0,0E0,0E0,0E0,0E0,0E0,0E0,0E0,0E0,0E0,0E0,0E0,0E0,0E0,0E0,0E0,0E0,0E0,0E0,0E0,0E0,0E0,0E0,0E0,0E0,0E0,0E0,0E0,0E0],"parents":[2147483647,0,0,1,1,2,2,3,3,4,4,5,5,6,6,7,7,8,8,9,9,10,10,11,11,12,12,13,13,14,14,16,16,17,17,18,18,19,19,20,20,21,21,22,22,23,23,24,24,25,25,26,26,27,27,28,28,29,29,30,30,37,37,38,38,39,39,40,40,41,41,42,42,43,43,44,44,45,45,46,46,47,47,48,48],"right_children":[2,4,6,8,10,12,14,16,18,20,22,24,26,28,30,-1,32,34,36,38,40,42,44,46,48,50,52,54,56,58,60,-1,-1,-1,-1,-1,-1,62,64,66,68,70,72,74,76,78,80,82,84,-1,-1,-1,-1,-1,-1,-1,-1,-1,-1,-1,-1,-1,-1,-1,-1,-1,-1,-1,-1,-1,-1,-1,-1,-1,-1,-1,-1,-1,-1,-1,-1,-1,-1,-1,-1],"split_conditions":[4.510125E3,1.4847142E3,8.6705E3,4.52375E2,2.9248572E3,6.72175E3,1.0837375E4,9.52E1,9.631429E2,2.202625E3,3.731E3,5.63575E3,7.712625E3,9.7395E3,1.2049375E4,-6.4351525E0,3.35625E2,7.144286E2,1.2185714E3,1.8604286E3,2.555625E3,3.3701428E3,4.142E3,5.1085E3,6.204143E3,7.1804287E3,8.1867144E3,9.191571E3,1.0325143E4,1.1463E4,1.2868E4,-6.0247474E0,-5.610684E0,-5.2531786E0,-4.7134852E0,-4.2207265E0,-3.6609185E0,1.717875E3,2.0487144E3,2.372E3,2.77025E3,3.1701428E3,3.56225E3,3.9725E3,4.3415E3,4.7634287E3,5.401143E3,5.9227144E3,6.465E3,7.7759566E0,8.764401E0,9.787014E0,1.082059E1,1.1781721E1,1.2923851E1,1.4054654E1,1.5181841E1,1.6304197E1,1.7551167E1,1.894808E1,2.0728413E1,-3.149272E0,-2.760642E0,-2.4262967E0,-2.0796597E0,-1.7662544E0,-1.3968045E0,-9.8033714E-1,-5.906801E-1,-2.0271619E-1,2.8310928E-1,6.748669E-1,1.0694189E0,1.4731593E0,1.8976746E0,2.2621841E0,2.6569853E0,3.02725E0,3.7025628E0,4.33227E0,4.875398E0,5.407265E0,5.989872E0,6.531856E0,7.050074E0],"split_indices":[0,0,0,0,0,0,0,0,0,0,0,0,0,0,0,0,0,0,0,0,0,0,0,0,0,0,0,0,0,0,0,0,0,0,0,0,0,0,0,0,0,0,0,0,0,0,0,0,0,0,0,0,0,0,0,0,0,0,0,0,0,0,0,0,0,0,0,0,0,0,0,0,0,0,0,0,0,0,0,0,0,0,0,0,0],"split_type":[0,0,0,0,0,0,0,0,0,0,0,0,0,0,0,0,0,0,0,0,0,0,0,0,0,0,0,0,0,0,0,0,0,0,0,0,0,0,0,0,0,0,0,0,0,0,0,0,0,0,0,0,0,0,0,0,0,0,0,0,0,0,0,0,0,0,0,0,0,0,0,0,0,0,0,0,0,0,0,0,0,0,0,0,0],"sum_hessian":[4.3862E4,2.9675E4,1.4187E4,2.4378E4,5.297E3,7.912E3,6.275E3,2.2032E4,2.346E3,2.748E3,2.549E3,3.94E3,3.972E3,3.503E3,2.772E3,2.0836E4,1.196E3,1.265E3,1.081E3,1.542E3,1.206E3,1.272E3,1.277E3,1.771E3,2.169E3,2.021E3,1.951E3,1.834E3,1.669E3,1.506E3,1.266E3,7.14E2,4.82E2,7.31E2,5.34E2,5.39E2,5.42E2,8.2E2,7.22E2,5.43E2,6.63E2,6.26E2,6.46E2,6.41E2,6.36E2,9.43E2,8.28E2,1.067E3,1.102E3,9.04E2,1.117E3,1.031E3,9.2E2,9.36E2,8.98E2,9.31E2,7.38E2,7.52E2,7.54E2,8.18E2,4.48E2,4.59E2,3.61E2,4.44E2,2.78E2,2.62E2,2.81E2,3.78E2,2.85E2,2.75E2,3.51E2,3.65E2,2.81E2,3.61E2,2.8E2,3.77E2,2.59E2,3.64E2,5.79E2,4.6E2,3.68E2,5.3E2,5.37E2,5.54E2,5.48E2],"tree_param":{"num_deleted":"0","num_feature":"19","num_nodes":"85","size_leaf_vector":"1"}},{"base_weights":[1.9216178E-1,-9.760081E1,2.1005421E2,-1.1754984E2,-3.2607956E0,1.439739E2,2.9983347E2,-1.2136313E2,-8.046427E1,-3.3408855E1,2.8141287E1,1.0485704E2,1.8270847E2,2.615735E2,3.4901883E2,-1.2213059E2,-1.0659566E2,-9.033549E1,-6.9770584E1,-4.5508675E1,-1.6363184E1,1.316377E1,4.2935154E1,8.033528E1,1.2301719E2,1.6227753E2,2.009813E2,2.3988133E2,2.8067413E2,3.261498E2,3.7444263E2,-6.1169457E0,-5.8405366E0,-5.537131E0,-5.175468E0,-4.7788105E0,-4.28649E0,-3.7447822E0,-6.447426E1,-5.131326E1,-3.7528774E1,-2.311621E1,-9.935162E0,6.2263546E0,2.027794E1,3.5901188E1,5.0212048E1,6.923775E1,9.035471E1,1.1115747E2,1.3240732E2,7.638046E0,8.544048E0,9.479488E0,1.0570502E1,1.1421909E1,1.2389003E1,1.347296E1,1.464183E1,1.5691077E1,1.6822184E1,1.8163446E1,1.9943306E1,-3.3517358E0,-3.0741878E0,-2.7091491E0,-2.3398898E0,-2.0194395E0,-1.6803769E0,-1.3265656E0,-9.8207283E-1,-6.6239387E-1,-3.2587382E-1,1.00621656E-1,4.5793715E-1,7.88291E-1,1.1854751E0,1.6266464E0,2.0081143E0,2.3458471E0,2.7240283E0,3.1030815E0,3.6339772E0,4.153438E0,4.744987E0,5.265685E0,5.7874765E0,6.296919E0,6.854912E0],"categories":[],"categories_nodes":[],"categories_segments":[],"categories_sizes":[],"default_left":[0,0,0,0,0,0,0,0,0,0,0,0,0,0,0,0,0,0,0,0,0,0,0,0,0,0,0,0,0,0,0,0,0,0,0,0,0,0,0,0,0,0,0,0,0,0,0,0,0,0,0,0,0,0,0,0,0,0,0,0,0,0,0,0,0,0,0,0,0,0,0,0,0,0,0,0,0,0,0,0,0,0,0,0,0,0,0,0,0],"id":18,"left_children":[1,3,5,7,9,11,13,15,17,19,21,23,25,27,29,31,33,35,37,39,41,43,45,47,49,51,53,55,57,59,61,-1,-1,-1,-1,-1,-1,-1,63,65,67,69,71,73,75,77,79,81,83,85,87,-1,-1,-1,-1,-1,-1,-1,-1,-1,-1,-1,-1,-1,-1,-1,-1,-1,-1,-1,-1,-1,-1,-1,-1,-1,-1,-1,-1,-1,-1,-1,-1,-1,-1,-1,-1,-1,-1],"loss_changes":[9.0578406E8,5.665885E7,8.318592E7,3.504608E6,4.976858E6,1.2228E7,1.1099872E7,2.42336E5,2.38595E5,5.524165E5,5.6999125E5,1.78208E6,1.483104E6,1.320288E6,1.388992E6,9.44E3,2.885E3,2.0843E4,2.55185E4,7.0704E4,4.8170938E4,6.309617E4,6.44825E4,1.84436E5,2.42532E5,1.31264E5,2.14032E5,8.576E4,1.632E5,6.904E4,1.89136E5,0E0,0E0,0E0,0E0,0E0,0E0,0E0,1.4325E2,9.1915E3,6.08925E3,5.9224688E3,6.4010586E3,8.0135254E3,9.411828E3,8.19475E3,6.361375E3,1.569275E4,2.18545E4,1.5369E4,2.1698E4,0E0,0E0,0E0,0E0,0E0,0E0,0E0,0E0,0E0,0E0,0E0,0E0,0E0,0E0,0E0,0E0,0E0,0E0,0E0,0E0,0E0,0E0,0E0,0E0,0E0,0E0,0E0,0E0,0E0,0E0,0E0,0E0,0E0,0E0,0E0,0E0,0E0,0E0],"parents":[2147483647,0,0,1,1,2,2,3,3,4,4,5,5,6,6,7,7,8,8,9,9,10,10,11,11,12,12,13,13,14,14,15,15,16,16,17,17,18,18,19,19,20,20,21,21,22,22,23,23,24,24,25,25,26,26,27,27,28,28,29,29,30,30,38,38,39,39,40,40,41,41,42,42,43,43,44,44,45,45,46,46,47,47,48,48,49,49,50,50],"right_children":[2,4,6,8,10,12,14,16,18,20,22,24,26,28,30,32,34,36,38,40,42,44,46,48,50,52,54,56,58,60,62,-1,-1,-1,-1,-1,-1,-1,64,66,68,70,72,74,76,78,80,82,84,86,88,-1,-1,-1,-1,-1,-1,-1,-1,-1,-1,-1,-1,-1,-1,-1,-1,-1,-1,-1,-1,-1,-1,-1,-1,-1,-1,-1,-1,-1,-1,-1,-1,-1,-1,-1,-1,-1,-1],"split_conditions":[4.6494287E3,1.6224286E3,8.8815E3,5.94125E2,3.090875E3,6.840143E3,1.0998143E4,2.52875E2,1.0932858E3,2.372E3,3.856125E3,5.744375E3,7.7984287E3,9.793875E3,1.2134857E4,3.675E1,3.792857E2,8.015714E2,1.354E3,2.011375E3,2.72E3,3.462875E3,4.2384287E3,5.1602856E3,6.260125E3,7.310875E3,8.27425E3,9.2535E3,1.0391714E4,1.1526875E4,1.297575E4,-6.1169457E0,-5.8405366E0,-5.537131E0,-5.175468E0,-4.7788105E0,-4.28649E0,-3.7447822E0,1.4847142E3,1.8604286E3,2.202625E3,2.555625E3,2.8695715E3,3.2684285E3,3.613875E3,4.0922856E3,4.45225E3,4.8375713E3,5.401143E3,5.963875E3,6.511857E3,7.638046E0,8.544048E0,9.479488E0,1.0570502E1,1.1421909E1,1.2389003E1,1.347296E1,1.464183E1,1.5691077E1,1.6822184E1,1.8163446E1,1.9943306E1,-3.3517358E0,-3.0741878E0,-2.7091491E0,-2.3398898E0,-2.0194395E0,-1.6803769E0,-1.3265656E0,-9.8207283E-1,-6.6239387E-1,-3.2587382E-1,1.00621656E-1,4.5793715E-1,7.88291E-1,1.1854751E0,1.6266464E0,2.0081143E0,2.3458471E0,2.7240283E0,3.1030815E0,3.6339772E0,4.153438E0,4.744987E0,5.265685E0,5.7874765E0,6.296919E0,6.854912E0],"split_indices":[0,0,0,0,0,0,0,0,0,0,0,0,0,0,0,0,0,0,0,0,0,0,0,0,0,0,0,0,0,0,0,0,0,0,0,0,0,0,0,0,0,0,0,0,0,0,0,0,0,0,0,0,0,0,0,0,0,0,0,0,0,0,0,0,0,0,0,0,0,0,0,0,0,0,0,0,0,0,0,0,0,0,0,0,0,0,0,0,0],"split_type":[0,0,0,0,0,0,0,0,0,0,0,0,0,0,0,0,0,0,0,0,0,0,0,0,0,0,0,0,0,0,0,0,0,0,0,0,0,0,0,0,0,0,0,0,0,0,0,0,0,0,0,0,0,0,0,0,0,0,0,0,0,0,0,0,0,0,0,0,0,0,0,0,0,0,0,0,0,0,0,0,0,0,0,0,0,0,0,0,0],"sum_hessian":[4.4133E4,3.0105E4,1.4028E4,2.485E4,5.255E3,8.082E3,5.946E3,2.2531E4,2.319E3,2.681E3,2.574E3,4.023E3,4.059E3,3.348E3,2.598E3,2.1411E4,1.12E3,1.202E3,1.117E3,1.567E3,1.114E3,1.28E3,1.294E3,1.714E3,2.309E3,1.921E3,2.138E3,1.574E3,1.774E3,1.375E3,1.223E3,2.0583E4,8.28E2,4.63E2,6.57E2,5.53E2,6.49E2,5.61E2,5.56E2,9.04E2,6.63E2,5.42E2,5.72E2,6.49E2,6.31E2,6.61E2,6.33E2,8.17E2,8.97E2,1.026E3,1.283E3,9.21E2,1E3,1.031E3,1.107E3,6.55E2,9.19E2,9.35E2,8.39E2,6.4E2,7.35E2,8.5E2,3.73E2,2.88E2,2.68E2,5.46E2,3.58E2,3.78E2,2.85E2,2.7E2,2.72E2,2.89E2,2.83E2,2.67E2,3.82E2,2.75E2,3.56E2,3.74E2,2.87E2,3.64E2,2.69E2,2.71E2,5.46E2,3.52E2,5.45E2,4.62E2,5.64E2,5.51E2,7.32E2],"tree_param":{"num_deleted":"0","num_feature":"19","num_nodes":"89","size_leaf_vector":"1"}},{"base_weights":[4.817601E-1,-9.288079E1,1.9938194E2,-1.1171039E2,-3.0886555E0,1.3942085E2,2.8872522E2,-1.1524014E2,-7.572303E1,-3.2201405E1,2.6648575E1,1.01005585E2,1.7765721E2,2.5536157E2,3.3627765E2,-1.1602277E2,-1.0098695E2,-8.3625854E1,-6.4495834E1,-4.4123978E1,-1.711626E1,1.2560117E1,4.0914886E1,7.8352425E1,1.20074234E2,1.6073602E2,1.9860834E2,2.3739587E2,2.7688205E2,3.2114233E2,3.6730573E2,-5.8111386E0,-5.5517855E0,-5.2330437E0,-4.879257E0,-4.394603E0,-3.8885777E0,-3.388417E0,-2.961306E0,-4.940485E1,-3.7389595E1,-2.4073874E1,-1.0559841E1,5.801509E0,1.926813E1,3.3093212E1,4.666397E1,6.797385E1,9.0013374E1,1.09975685E2,1.2936139E2,1.5096342E2,8.556509E0,9.519099E0,1.04267645E1,1.1411403E1,1.2431882E1,1.3381984E1,1.4403101E1,1.5494039E1,1.6678947E1,1.8009079E1,2.0518354E1,-2.644457E0,-2.326838E0,-2.0492046E0,-1.7331755E0,-1.374117E0,-1.0391101E0,-6.8466437E-1,-3.1102267E-1,9.75795E-2,4.3707353E-1,7.535365E-1,1.1226158E0,1.4307746E0,1.7623538E0,2.1421087E0,2.5328362E0,3.0683482E0,3.657789E0,4.1754384E0,4.7060485E0,5.1768837E0,5.716837E0,6.204671E0,6.6948137E0,7.317628E0,7.821945E0],"categories":[],"categories_nodes":[],"categories_segments":[],"categories_sizes":[],"default_left":[0,0,0,0,0,0,0,0,0,0,0,0,0,0,0,0,0,0,0,0,0,0,0,0,0,0,0,0,0,0,0,0,0,0,0,0,0,0,0,0,0,0,0,0,0,0,0,0,0,0,0,0,0,0,0,0,0,0,0,0,0,0,0,0,0,0,0,0,0,0,0,0,0,0,0,0,0,0,0,0,0,0,0,0,0,0,0,0,0],"id":19,"left_children":[1,3,5,7,9,11,13,15,17,19,21,23,25,27,29,31,33,35,37,39,41,43,45,47,49,51,53,55,57,59,61,-1,-1,-1,-1,-1,-1,-1,-1,63,65,67,69,71,73,75,77,79,81,83,85,87,-1,-1,-1,-1,-1,-1,-1,-1,-1,-1,-1,-1,-1,-1,-1,-1,-1,-1,-1,-1,-1,-1,-1,-1,-1,-1,-1,-1,-1,-1,-1,-1,-1,-1,-1,-1,-1],"loss_changes":[8.1709094E8,5.0629184E7,7.525939E7,3.13568E6,4.4957415E6,1.2339568E7,8.868448E6,2.39712E5,1.91046E5,4.71181E5,5.1583038E5,1.804416E6,1.462368E6,1.218272E6,9.7344E5,8.416E3,4.547E3,2.5534E4,1.18345E4,5.02535E4,5.266153E4,5.855411E4,5.583425E4,2.26489E5,1.9942E5,2.11552E5,1.13744E5,1.3052E5,7.8416E4,1.16528E5,8.3816E4,0E0,0E0,0E0,0E0,0E0,0E0,0E0,0E0,5.713125E3,4.929E3,5.73425E3,8.0595703E3,7.2947637E3,8.335672E3,4.2379375E3,9.015E3,3.0466E4,1.62405E4,1.899E4,1.1598E4,7.73E3,0E0,0E0,0E0,0E0,0E0,0E0,0E0,0E0,0E0,0E0,0E0,0E0,0E0,0E0,0E0,0E0,0E0,0E0,0E0,0E0,0E0,0E0,0E0,0E0,0E0,0E0,0E0,0E0,0E0,0E0,0E0,0E0,0E0,0E0,0E0,0E0,0E0],"parents":[2147483647,0,0,1,1,2,2,3,3,4,4,5,5,6,6,7,7,8,8,9,9,10,10,11,11,12,12,13,13,14,14,15,15,16,16,17,17,18,18,19,19,20,20,21,21,22,22,23,23,24,24,25,25,26,26,27,27,28,28,29,29,30,30,39,39,40,40,41,41,42,42,43,43,44,44,45,45,46,46,47,47,48,48,49,49,50,50,51,51],"right_children":[2,4,6,8,10,12,14,16,18,20,22,24,26,28,30,32,34,36,38,40,42,44,46,48,50,52,54,56,58,60,62,-1,-1,-1,-1,-1,-1,-1,-1,64,66,68,70,72,74,76,78,80,82,84,86,88,-1,-1,-1,-1,-1,-1,-1,-1,-1,-1,-1,-1,-1,-1,-1,-1,-1,-1,-1,-1,-1,-1,-1,-1,-1,-1,-1,-1,-1,-1,-1,-1,-1,-1,-1,-1,-1],"split_conditions":[4.6494287E3,1.6224286E3,9.038714E3,6.29E2,3.090875E3,6.937143E3,1.1251E4,2.52875E2,1.183125E3,2.3015E3,3.856125E3,5.834625E3,8.0565E3,1.014125E4,1.258475E4,3.675E1,4.037143E2,9.297143E2,1.4457142E3,1.976625E3,2.666E3,3.462875E3,4.190857E3,5.29075E3,6.3804287E3,7.5254287E3,8.57475E3,9.62425E3,1.0710143E4,1.1895857E4,1.349625E4,-5.8111386E0,-5.5517855E0,-5.2330437E0,-4.879257E0,-4.394603E0,-3.8885777E0,-3.388417E0,-2.961306E0,1.792375E3,2.092125E3,2.483E3,2.8695715E3,3.2684285E3,3.613875E3,3.9725E3,4.395375E3,4.9427144E3,5.51325E3,6.0687144E3,6.637857E3,7.2705713E3,8.556509E0,9.519099E0,1.04267645E1,1.1411403E1,1.2431882E1,1.3381984E1,1.4403101E1,1.5494039E1,1.6678947E1,1.8009079E1,2.0518354E1,-2.644457E0,-2.326838E0,-2.0492046E0,-1.7331755E0,-1.374117E0,-1.0391101E0,-6.8466437E-1,-3.1102267E-1,9.75795E-2,4.3707353E-1,